{"learner":{"attributes":{"scikit_learn":"{\"_estimator_type\": \"regressor\"}"},"feature_names":["hour","minute","dayofweek","temp_lag_1","temp_lag_2","temp_lag_3","hum_lag_1","hum_lag_2","hum_lag_3","iaq_lag_1","iaq_lag_2","iaq_lag_3","pres_lag_1","pres_lag_2","pres_lag_3","eco2_lag_1","eco2_lag_2","eco2_lag_3","temp_rolling_3","temp_rolling_5"],"feature_types":["int","int","int","float","float","float","float","float","float","float","float","float","float","float","float","float","float","float","float","float"],"gradient_booster":{"model":{"cats":{"enc":[],"feature_segments":[],"sorted_idx":[]},"gbtree_model_param":{"num_parallel_tree":"1","num_trees":"200"},"iteration_indptr":[0,1,2,3,4,5,6,7,8,9,10,11,12,13,14,15,16,17,18,19,20,21,22,23,24,25,26,27,28,29,30,31,32,33,34,35,36,37,38,39,40,41,42,43,44,45,46,47,48,49,50,51,52,53,54,55,56,57,58,59,60,61,62,63,64,65,66,67,68,69,70,71,72,73,74,75,76,77,78,79,80,81,82,83,84,85,86,87,88,89,90,91,92,93,94,95,96,97,98,99,100,101,102,103,104,105,106,107,108,109,110,111,112,113,114,115,116,117,118,119,120,121,122,123,124,125,126,127,128,129,130,131,132,133,134,135,136,137,138,139,140,141,142,143,144,145,146,147,148,149,150,151,152,153,154,155,156,157,158,159,160,161,162,163,164,165,166,167,168,169,170,171,172,173,174,175,176,177,178,179,180,181,182,183,184,185,186,187,188,189,190,191,192,193,194,195,196,197,198,199,200],"tree_info":[0,0,0,0,0,0,0,0,0,0,0,0,0,0,0,0,0,0,0,0,0,0,0,0,0,0,0,0,0,0,0,0,0,0,0,0,0,0,0,0,0,0,0,0,0,0,0,0,0,0,0,0,0,0,0,0,0,0,0,0,0,0,0,0,0,0,0,0,0,0,0,0,0,0,0,0,0,0,0,0,0,0,0,0,0,0,0,0,0,0,0,0,0,0,0,0,0,0,0,0,0,0,0,0,0,0,0,0,0,0,0,0,0,0,0,0,0,0,0,0,0,0,0,0,0,0,0,0,0,0,0,0,0,0,0,0,0,0,0,0,0,0,0,0,0,0,0,0,0,0,0,0,0,0,0,0,0,0,0,0,0,0,0,0,0,0,0,0,0,0,0,0,0,0,0,0,0,0,0,0,0,0,0,0,0,0,0,0,0,0,0,0,0,0,0,0,0,0,0,0],"trees":[{"base_weights":[2.7079642E-7,-1.8585975E-1,3.1861702E-1,-9.9860616E-2,7.3994786E-1,-1.10604286E-1,-3.9511327E-2,4.905502E-2,1.4059243E0,-1.2219066E-1,1.7940608E-1,2.0019428E-1,9.496414E-2,-4.276975E-2,-1.5511274E-1,4.1526477E-3,2.0868516E-2,-6.8726265E-3,3.2052041E-3,-1.9207459E-2,-9.680929E-3],"categories":[],"categories_nodes":[],"categories_segments":[],"categories_sizes":[],"default_left":[0,0,0,0,0,0,0,0,0,0,0,0,0,0,0,0,0,0,0,0,0],"id":0,"left_children":[1,-1,3,5,7,-1,9,-1,11,13,15,-1,-1,17,19,-1,-1,-1,-1,-1,-1],"loss_changes":[4.8558796E1,0E0,1.2416121E1,2.1423047E0,5.123575E0,0E0,6.554198E-1,0E0,5.4644966E-1,6.134814E-2,3.170395E-2,0E0,0E0,1.9681836E-2,2.0195454E-2,0E0,0E0,0E0,0E0,0E0,0E0],"parents":[2147483647,0,0,2,2,3,3,4,4,6,6,8,8,9,9,10,10,13,13,14,14],"right_children":[2,-1,4,6,8,-1,10,-1,12,14,16,-1,-1,18,20,-1,-1,-1,-1,-1,-1],"split_conditions":[1.16E1,-1.8585975E-1,1.2193359E1,1.4E1,1.301E1,-1.10604286E-1,1.6E1,4.905502E-2,1.3E1,2.943E1,1.1825652E1,2.0019428E-1,9.496414E-2,1.1859048E1,2.2555357E2,4.1526477E-3,2.0868516E-2,-6.8726265E-3,3.2052041E-3,-1.9207459E-2,-9.680929E-3],"split_indices":[3,0,18,0,18,0,0,0,0,10,4,0,0,3,9,0,0,0,0,0,0],"split_type":[0,0,0,0,0,0,0,0,0,0,0,0,0,0,0,0,0,0,0,0,0],"sum_hessian":[8E1,1.1E1,6.9E1,3.5E1,3.4E1,1E0,3.4E1,2.6E1,8E0,2.5E1,9E0,2E0,6E0,8E0,1.7E1,2E0,7E0,6E0,2E0,9E0,8E0],"tree_param":{"num_deleted":"0","num_feature":"20","num_nodes":"21","size_leaf_vector":"1"}},{"base_weights":[4.9661705E-4,-1.6882262E-1,2.8998485E-1,1.3896443E-1,1.2981273E0,-1.3690048E-1,4.1924548E-1,1.8684801E-1,8.6824365E-2,-1.0507407E-1,-7.3526904E-2,2.0543728E-2,4.4331197E-2,-1.1122406E-1,1.0208193E-1,-1.2423214E-2,2.9915175E-3,3.8758279E-3,1.240542E-2],"categories":[],"categories_nodes":[],"categories_segments":[],"categories_sizes":[],"default_left":[0,0,0,0,0,0,0,0,0,0,0,0,0,0,0,0,0,0,0],"id":1,"left_children":[1,-1,3,5,7,9,11,-1,-1,-1,13,-1,-1,15,17,-1,-1,-1,-1],"loss_changes":[4.008766E1,0E0,1.0477116E1,4.8512163E0,5.843735E-1,1.7759686E0,6.844139E-2,0E0,0E0,0E0,2.1657255E-1,0E0,0E0,5.1451087E-2,3.5400614E-3,0E0,0E0,0E0,0E0],"parents":[2147483647,0,0,2,2,3,3,4,4,5,5,6,6,10,10,13,13,14,14],"right_children":[2,-1,4,6,8,10,12,-1,-1,-1,14,-1,-1,16,18,-1,-1,-1,-1],"split_conditions":[1.16E1,-1.6882262E-1,1.301E1,1.2078E1,1.3E1,1.4E1,3.39775E1,1.8684801E-1,8.6824365E-2,-1.0507407E-1,1.6E1,2.0543728E-2,4.4331197E-2,5.1080475E1,1.1825652E1,-1.2423214E-2,2.9915175E-3,3.8758279E-3,1.240542E-2],"split_indices":[3,0,18,18,0,0,8,0,0,0,0,0,0,6,4,0,0,0,0],"split_type":[0,0,0,0,0,0,0,0,0,0,0,0,0,0,0,0,0,0,0],"sum_hessian":[8E1,1.1E1,6.9E1,6.1E1,8E0,3.1E1,3E1,2E0,6E0,1E0,3E1,4E0,2.6E1,2.5E1,5E0,2.3E1,2E0,2E0,3E0],"tree_param":{"num_deleted":"0","num_feature":"20","num_nodes":"19","size_leaf_vector":"1"}},{"base_weights":[1.3295868E-3,-1.5334724E-1,2.644195E-1,1.24530025E-1,1.1987226E0,-1.2627974E-1,3.7941334E-1,1.743915E-1,7.938227E-2,-9.9820375E-2,-6.595304E-2,4.0828988E-2,2.2208093E-2,-1.0046416E-1,9.4587326E-2,-3.1283062E-3,-1.2947338E-2,3.6174457E-3,1.14750145E-2],"categories":[],"categories_nodes":[],"categories_segments":[],"categories_sizes":[],"default_left":[0,0,0,0,0,0,0,0,0,0,0,0,0,0,0,0,0,0,0],"id":2,"left_children":[1,-1,3,5,7,9,11,-1,-1,-1,13,-1,-1,15,17,-1,-1,-1,-1],"loss_changes":[3.311254E1,0E0,8.999666E0,4.0113997E0,6.02376E-1,1.6173749E0,5.016613E-2,0E0,0E0,0E0,1.8125592E-1,0E0,0E0,4.8128784E-2,2.9155873E-3,0E0,0E0,0E0,0E0],"parents":[2147483647,0,0,2,2,3,3,4,4,5,5,6,6,10,10,13,13,14,14],"right_children":[2,-1,4,6,8,10,12,-1,-1,-1,14,-1,-1,16,18,-1,-1,-1,-1],"split_conditions":[1.16E1,-1.5334724E-1,1.301E1,1.2078E1,1.3E1,1.4E1,6.4909265E2,1.743915E-1,7.938227E-2,-9.9820375E-2,1.6E1,4.0828988E-2,2.2208093E-2,2.943E1,1.1825652E1,-3.1283062E-3,-1.2947338E-2,3.6174457E-3,1.14750145E-2],"split_indices":[3,0,18,18,0,0,12,0,0,0,0,0,0,10,4,0,0,0,0],"split_type":[0,0,0,0,0,0,0,0,0,0,0,0,0,0,0,0,0,0,0],"sum_hessian":[8E1,1.1E1,6.9E1,6.1E1,8E0,3.1E1,3E1,2E0,6E0,1E0,3E1,2.4E1,6E0,2.5E1,5E0,8E0,1.7E1,2E0,3E0],"tree_param":{"num_deleted":"0","num_feature":"20","num_nodes":"19","size_leaf_vector":"1"}},{"base_weights":[1.9702087E-3,-1.3929044E-1,2.410634E-1,1.114679E-1,1.1070476E0,-1.1680204E-1,3.4350565E-1,1.6276537E-1,7.25781E-2,-9.482937E-2,-5.9389606E-2,1.7123548E-2,3.626851E-2,-9.103628E-2,8.764426E-2,-1.2817765E-2,-4.4035106E-3,3.3762932E-3,1.0614419E-2],"categories":[],"categories_nodes":[],"categories_segments":[],"categories_sizes":[],"default_left":[0,0,0,0,0,0,0,0,0,0,0,0,0,0,0,0,0,0,0],"id":3,"left_children":[1,-1,3,5,7,9,11,-1,-1,-1,13,-1,-1,15,17,-1,-1,-1,-1],"loss_changes":[2.7349684E1,0E0,7.732535E0,3.324091E0,6.0508823E-1,1.4712958E0,4.0320873E-2,0E0,0E0,0E0,1.5222594E-1,0E0,0E0,3.9743587E-2,2.3970641E-3,0E0,0E0,0E0,0E0],"parents":[2147483647,0,0,2,2,3,3,4,4,5,5,6,6,10,10,13,13,14,14],"right_children":[2,-1,4,6,8,10,12,-1,-1,-1,14,-1,-1,16,18,-1,-1,-1,-1],"split_conditions":[1.16E1,-1.3929044E-1,1.301E1,1.2078E1,1.3E1,1.4E1,3.39775E1,1.6276537E-1,7.25781E-2,-9.482937E-2,1.6E1,1.7123548E-2,3.626851E-2,1.5E1,1.1825652E1,-1.2817765E-2,-4.4035106E-3,3.3762932E-3,1.0614419E-2],"split_indices":[3,0,18,18,0,0,8,0,0,0,0,0,0,0,4,0,0,0,0],"split_type":[0,0,0,0,0,0,0,0,0,0,0,0,0,0,0,0,0,0,0],"sum_hessian":[8E1,1.1E1,6.9E1,6.1E1,8E0,3.1E1,3E1,2E0,6E0,1E0,3E1,4E0,2.6E1,2.5E1,5E0,1.3E1,1.2E1,2E0,3E0],"tree_param":{"num_deleted":"0","num_feature":"20","num_nodes":"19","size_leaf_vector":"1"}},{"base_weights":[2.407592E-3,-1.2652211E-1,2.1968096E-1,9.960065E-2,1.0224919E0,-1.0818648E-1,3.1087768E-1,1.5191434E-1,6.63571E-2,-9.008789E-2,-5.355515E-2,3.342768E-2,1.8289825E-2,-8.2595386E-2,8.121172E-2,-2.0849016E-3,-1.0887994E-2,3.151226E-3,9.81834E-3],"categories":[],"categories_nodes":[],"categories_segments":[],"categories_sizes":[],"default_left":[0,0,0,0,0,0,0,0,0,0,0,0,0,0,0,0,0,0,0],"id":4,"left_children":[1,-1,3,5,7,9,11,-1,-1,-1,13,-1,-1,15,17,-1,-1,-1,-1],"loss_changes":[2.2587124E1,0E0,6.646284E0,2.755473E0,5.9626865E-1,1.3375403E0,3.1694174E-2,0E0,0E0,0E0,1.2803122E-1,0E0,0E0,3.9927334E-2,1.9669123E-3,0E0,0E0,0E0,0E0],"parents":[2147483647,0,0,2,2,3,3,4,4,5,5,6,6,10,10,13,13,14,14],"right_children":[2,-1,4,6,8,10,12,-1,-1,-1,14,-1,-1,16,18,-1,-1,-1,-1],"split_conditions":[1.16E1,-1.2652211E-1,1.301E1,1.2078E1,1.3E1,1.4E1,6.4909265E2,1.5191434E-1,6.63571E-2,-9.008789E-2,1.6E1,3.342768E-2,1.8289825E-2,2.943E1,1.1825652E1,-2.0849016E-3,-1.0887994E-2,3.151226E-3,9.81834E-3],"split_indices":[3,0,18,18,0,0,12,0,0,0,0,0,0,10,4,0,0,0,0],"split_type":[0,0,0,0,0,0,0,0,0,0,0,0,0,0,0,0,0,0,0],"sum_hessian":[8E1,1.1E1,6.9E1,6.1E1,8E0,3.1E1,3E1,2E0,6E0,1E0,3E1,2.4E1,6E0,2.5E1,5E0,8E0,1.7E1,2E0,3E0],"tree_param":{"num_deleted":"0","num_feature":"20","num_nodes":"19","size_leaf_vector":"1"}},{"base_weights":[2.8259843E-3,-1.1492425E-1,2.0028307E-1,8.9021884E-2,9.444953E-1,-1.0018313E-1,2.8145862E-1,1.4178671E-1,6.066938E-2,-8.55835E-2,-4.8199683E-2,1.6709274E-2,3.022227E-2,-7.483479E-2,7.525238E-2,-1.0868066E-2,-3.2628868E-3,2.9411635E-3,9.081984E-3],"categories":[],"categories_nodes":[],"categories_segments":[],"categories_sizes":[],"default_left":[0,0,0,0,0,0,0,0,0,0,0,0,0,0,0,0,0,0,0],"id":5,"left_children":[1,-1,3,5,7,9,11,-1,-1,-1,13,-1,-1,15,17,-1,-1,-1,-1],"loss_changes":[1.8656385E1,0E0,5.7120547E0,2.285617E0,5.789404E-1,1.2157533E0,2.3116589E-2,0E0,0E0,0E0,1.0756441E-1,0E0,0E0,3.3594772E-2,1.6105846E-3,0E0,0E0,0E0,0E0],"parents":[2147483647,0,0,2,2,3,3,4,4,5,5,6,6,10,10,13,13,14,14],"right_children":[2,-1,4,6,8,10,12,-1,-1,-1,14,-1,-1,16,18,-1,-1,-1,-1],"split_conditions":[1.16E1,-1.1492425E-1,1.301E1,1.2078E1,1.3E1,1.4E1,3.59935E1,1.4178671E-1,6.066938E-2,-8.55835E-2,1.6E1,1.6709274E-2,3.022227E-2,1.5E1,1.1825652E1,-1.0868066E-2,-3.2628868E-3,2.9411635E-3,9.081984E-3],"split_indices":[3,0,18,18,0,0,7,0,0,0,0,0,0,0,4,0,0,0,0],"split_type":[0,0,0,0,0,0,0,0,0,0,0,0,0,0,0,0,0,0,0],"sum_hessian":[8E1,1.1E1,6.9E1,6.1E1,8E0,3.1E1,3E1,2E0,6E0,1E0,3E1,6E0,2.4E1,2.5E1,5E0,1.3E1,1.2E1,2E0,3E0],"tree_param":{"num_deleted":"0","num_feature":"20","num_nodes":"19","size_leaf_vector":"1"}},{"base_weights":[3.1209285E-3,-1.0438951E-1,1.8256481E-1,7.946234E-2,8.725412E-1,-9.290528E-2,2.548269E-1,1.3233428E-1,5.5469185E-2,-8.130431E-2,-4.3447834E-2,2.737141E-2,1.5096882E-2,-6.789497E-2,6.973108E-2,-1.2715658E-3,-9.171269E-3,2.745088E-3,8.400845E-3],"categories":[],"categories_nodes":[],"categories_segments":[],"categories_sizes":[],"default_left":[0,0,0,0,0,0,0,0,0,0,0,0,0,0,0,0,0,0,0],"id":6,"left_children":[1,-1,3,5,7,9,11,-1,-1,-1,13,-1,-1,15,17,-1,-1,-1,-1],"loss_changes":[1.5408908E1,0E0,4.9103446E0,1.8977596E0,5.555353E-1,1.1043928E0,1.9486904E-2,0E0,0E0,0E0,9.050831E-2,0E0,0E0,3.3004187E-2,1.3157967E-3,0E0,0E0,0E0,0E0],"parents":[2147483647,0,0,2,2,3,3,4,4,5,5,6,6,10,10,13,13,14,14],"right_children":[2,-1,4,6,8,10,12,-1,-1,-1,14,-1,-1,16,18,-1,-1,-1,-1],"split_conditions":[1.16E1,-1.0438951E-1,1.301E1,1.2078E1,1.3E1,1.4E1,6.4909265E2,1.3233428E-1,5.5469185E-2,-8.130431E-2,1.6E1,2.737141E-2,1.5096882E-2,2.943E1,1.1825652E1,-1.2715658E-3,-9.171269E-3,2.745088E-3,8.400845E-3],"split_indices":[3,0,18,18,0,0,12,0,0,0,0,0,0,10,4,0,0,0,0],"split_type":[0,0,0,0,0,0,0,0,0,0,0,0,0,0,0,0,0,0,0],"sum_hessian":[8E1,1.1E1,6.9E1,6.1E1,8E0,3.1E1,3E1,2E0,6E0,1E0,3E1,2.4E1,6E0,2.5E1,5E0,8E0,1.7E1,2E0,3E0],"tree_param":{"num_deleted":"0","num_feature":"20","num_nodes":"19","size_leaf_vector":"1"}},{"base_weights":[3.3678242E-3,-9.48205E-2,1.6644648E-1,7.090112E-2,8.0615383E-1,-8.613348E-2,2.3071422E-1,1.2351195E-1,5.0714653E-2,-7.723909E-2,-3.908031E-2,1.9681176E-2,3.035823E-2,-6.150708E-2,6.461573E-2,-4.4486546E-3,-1.4399839E-2,2.5621096E-3,7.7707767E-3],"categories":[],"categories_nodes":[],"categories_segments":[],"categories_sizes":[],"default_left":[0,0,0,0,0,0,0,0,0,0,0,0,0,0,0,0,0,0,0],"id":7,"left_children":[1,-1,3,5,7,9,11,-1,-1,-1,13,-1,-1,15,17,-1,-1,-1,-1],"loss_changes":[1.2727504E1,0E0,4.221318E0,1.5758357E0,5.2798843E-1,1.0031134E0,1.683414E-2,0E0,0E0,0E0,7.60669E-2,0E0,0E0,3.0099213E-2,1.072159E-3,0E0,0E0,0E0,0E0],"parents":[2147483647,0,0,2,2,3,3,4,4,5,5,6,6,10,10,13,13,14,14],"right_children":[2,-1,4,6,8,10,12,-1,-1,-1,14,-1,-1,16,18,-1,-1,-1,-1],"split_conditions":[1.16E1,-9.48205E-2,1.301E1,1.2078E1,1.3E1,1.4E1,2.1651E2,1.2351195E-1,5.0714653E-2,-7.723909E-2,1.6E1,1.9681176E-2,3.035823E-2,1.1859048E1,1.1825652E1,-4.4486546E-3,-1.4399839E-2,2.5621096E-3,7.7707767E-3],"split_indices":[3,0,18,18,0,0,10,0,0,0,0,0,0,5,4,0,0,0,0],"split_type":[0,0,0,0,0,0,0,0,0,0,0,0,0,0,0,0,0,0,0],"sum_hessian":[8E1,1.1E1,6.9E1,6.1E1,8E0,3.1E1,3E1,2E0,6E0,1E0,3E1,2.3E1,7E0,2.5E1,5E0,2.2E1,3E0,2E0,3E0],"tree_param":{"num_deleted":"0","num_feature":"20","num_nodes":"19","size_leaf_vector":"1"}},{"base_weights":[3.5704742E-3,-8.612867E-2,1.5178068E-1,6.323508E-2,7.44897E-1,-8.019984E-2,2.092571E-1,1.15277804E-1,4.63677E-2,-7.337713E-2,-3.5446845E-2,1.0171566E-2,2.2142192E-2,-8.606631E-2,5.8931243E-3,-1.330885E-2,-5.3948592E-3,-3.4012794E-3,6.0027125E-3],"categories":[],"categories_nodes":[],"categories_segments":[],"categories_sizes":[],"default_left":[0,0,0,0,0,0,0,0,0,0,0,0,0,0,0,0,0,0,0],"id":8,"left_children":[1,-1,3,5,7,9,11,-1,-1,-1,13,-1,-1,15,17,-1,-1,-1,-1],"loss_changes":[1.051336E1,0E0,3.6291456E0,1.3153511E0,4.978218E-1,9.099671E-1,1.803279E-2,0E0,0E0,0E0,6.5378025E-2,0E0,0E0,1.3963498E-2,4.0926494E-2,0E0,0E0,0E0,0E0],"parents":[2147483647,0,0,2,2,3,3,4,4,5,5,6,6,10,10,13,13,14,14],"right_children":[2,-1,4,6,8,10,12,-1,-1,-1,14,-1,-1,16,18,-1,-1,-1,-1],"split_conditions":[1.16E1,-8.612867E-2,1.301E1,1.2078E1,1.3E1,1.4E1,3.39775E1,1.15277804E-1,4.63677E-2,-7.337713E-2,1.5E1,1.0171566E-2,2.2142192E-2,6.496456E2,1.1845956E1,-1.330885E-2,-5.3948592E-3,-3.4012794E-3,6.0027125E-3],"split_indices":[3,0,18,18,0,0,8,0,0,0,0,0,0,14,18,0,0,0,0],"split_type":[0,0,0,0,0,0,0,0,0,0,0,0,0,0,0,0,0,0,0],"sum_hessian":[8E1,1.1E1,6.9E1,6.1E1,8E0,3.1E1,3E1,2E0,6E0,1E0,3E1,4E0,2.6E1,1.3E1,1.7E1,4E0,9E0,1E1,7E0],"tree_param":{"num_deleted":"0","num_feature":"20","num_nodes":"19","size_leaf_vector":"1"}},{"base_weights":[3.4397973E-3,-7.823358E-2,1.3809504E-1,5.598939E-2,6.8836784E-1,7.976243E-2,-6.97083E-2,1.0759258E-1,4.239333E-2,-3.2421667E-2,1.8937354E-1,-7.879571E-2,5.448235E-3,1.587261E-2,2.5764419E-2,-1.021773E-2,-3.0590694E-3,-3.0921071E-3,5.4775E-3],"categories":[],"categories_nodes":[],"categories_segments":[],"categories_sizes":[],"default_left":[0,0,0,0,0,0,0,0,0,0,0,0,0,0,0,0,0,0,0],"id":9,"left_children":[1,-1,3,5,7,9,-1,-1,-1,11,13,15,17,-1,-1,-1,-1,-1,-1],"loss_changes":[8.67855E0,0E0,3.1240942E0,1.1655757E0,4.6623278E-1,7.562338E-1,0E0,0E0,0E0,5.487089E-2,2.3967028E-2,1.2653872E-2,3.3985343E-2,0E0,0E0,0E0,0E0,0E0,0E0],"parents":[2147483647,0,0,2,2,3,3,4,4,5,5,9,9,10,10,11,11,12,12],"right_children":[2,-1,4,6,8,10,-1,-1,-1,12,14,16,18,-1,-1,-1,-1,-1,-1],"split_conditions":[1.16E1,-7.823358E-2,1.301E1,1.301E1,1.3E1,1.2078E1,-6.97083E-2,1.0759258E-1,4.239333E-2,1.5E1,2.1651E2,1E0,1.1845956E1,1.587261E-2,2.5764419E-2,-1.021773E-2,-3.0590694E-3,-3.0921071E-3,5.4775E-3],"split_indices":[3,0,18,3,0,18,0,0,0,0,10,2,18,0,0,0,0,0,0],"split_type":[0,0,0,0,0,0,0,0,0,0,0,0,0,0,0,0,0,0,0],"sum_hessian":[8E1,1.1E1,6.9E1,6.1E1,8E0,6E1,1E0,2E0,6E0,3E1,3E1,1.3E1,1.7E1,2.3E1,7E0,8E0,5E0,1E1,7E0],"tree_param":{"num_deleted":"0","num_feature":"20","num_nodes":"19","size_leaf_vector":"1"}},{"base_weights":[3.5004558E-3,-7.1062155E-2,1.2587136E-1,4.9761802E-2,6.361959E-1,7.2289996E-2,-6.6222906E-2,1.0041975E-1,3.8759585E-2,-2.9530987E-2,1.7177905E-1,-7.1864404E-2,5.0356123E-3,1.4351451E-1,2.3510028E-2,-1.1426754E-2,-4.347639E-3,-2.811033E-3,4.9981833E-3,8.087979E-3,1.5199748E-2],"categories":[],"categories_nodes":[],"categories_segments":[],"categories_sizes":[],"default_left":[0,0,0,0,0,0,0,0,0,0,0,0,0,0,0,0,0,0,0,0,0],"id":10,"left_children":[1,-1,3,5,7,9,-1,-1,-1,11,13,15,17,19,-1,-1,-1,-1,-1,-1,-1],"loss_changes":[7.167855E0,0E0,2.6871822E0,1.0423446E0,4.3414402E-1,6.2300724E-1,0E0,0E0,0E0,4.572487E-2,2.1741867E-2,1.1884436E-2,2.8221134E-2,4.583001E-4,0E0,0E0,0E0,0E0,0E0,0E0,0E0],"parents":[2147483647,0,0,2,2,3,3,4,4,5,5,9,9,10,10,11,11,12,12,13,13],"right_children":[2,-1,4,6,8,10,-1,-1,-1,12,14,16,18,20,-1,-1,-1,-1,-1,-1,-1],"split_conditions":[1.16E1,-7.1062155E-2,1.301E1,1.301E1,1.3E1,1.2078E1,-6.6222906E-2,1.0041975E-1,3.8759585E-2,1.5E1,2.1651E2,6.496456E2,1.1845956E1,3.39775E1,2.3510028E-2,-1.1426754E-2,-4.347639E-3,-2.811033E-3,4.9981833E-3,8.087979E-3,1.5199748E-2],"split_indices":[3,0,18,3,0,18,0,0,0,0,10,14,18,8,0,0,0,0,0,0,0],"split_type":[0,0,0,0,0,0,0,0,0,0,0,0,0,0,0,0,0,0,0,0,0],"sum_hessian":[8E1,1.1E1,6.9E1,6.1E1,8E0,6E1,1E0,2E0,6E0,3E1,3E1,1.3E1,1.7E1,2.3E1,7E0,4E0,9E0,1E1,7E0,4E0,1.9E1],"tree_param":{"num_deleted":"0","num_feature":"20","num_nodes":"21","size_leaf_vector":"1"}},{"base_weights":[3.583908E-3,-6.454813E-2,1.1480103E-1,4.4253286E-2,5.880409E-1,6.560555E-2,-6.291175E-2,9.372508E-2,3.5437368E-2,-2.7015993E-2,1.561108E-1,-6.580455E-2,4.653772E-3,1.3013343E-2,2.1452904E-2,-1.0512601E-2,-3.956337E-3,-2.5554483E-3,4.5608403E-3],"categories":[],"categories_nodes":[],"categories_segments":[],"categories_sizes":[],"default_left":[0,0,0,0,0,0,0,0,0,0,0,0,0,0,0,0,0,0,0],"id":11,"left_children":[1,-1,3,5,7,9,-1,-1,-1,11,13,15,17,-1,-1,-1,-1,-1,-1],"loss_changes":[5.921262E0,0E0,2.3109975E0,9.3270916E-1,4.0225315E-1,5.155644E-1,0E0,0E0,0E0,3.8387403E-2,1.9126713E-2,1.028664E-2,2.3434522E-2,0E0,0E0,0E0,0E0,0E0,0E0],"parents":[2147483647,0,0,2,2,3,3,4,4,5,5,9,9,10,10,11,11,12,12],"right_children":[2,-1,4,6,8,10,-1,-1,-1,12,14,16,18,-1,-1,-1,-1,-1,-1],"split_conditions":[1.16E1,-6.454813E-2,1.301E1,1.301E1,1.3E1,1.2078E1,-6.291175E-2,9.372508E-2,3.5437368E-2,1.5E1,2.1651E2,6.496456E2,1.1845956E1,1.3013343E-2,2.1452904E-2,-1.0512601E-2,-3.956337E-3,-2.5554483E-3,4.5608403E-3],"split_indices":[3,0,18,3,0,18,0,0,0,0,10,14,18,0,0,0,0,0,0],"split_type":[0,0,0,0,0,0,0,0,0,0,0,0,0,0,0,0,0,0,0],"sum_hessian":[8E1,1.1E1,6.9E1,6.1E1,8E0,6E1,1E0,2E0,6E0,3E1,3E1,1.3E1,1.7E1,2.3E1,7E0,4E0,9E0,1E1,7E0],"tree_param":{"num_deleted":"0","num_feature":"20","num_nodes":"19","size_leaf_vector":"1"}},{"base_weights":[3.5184578E-3,-5.863118E-2,1.0458195E-1,2.7407065E-2,4.7531E-1,4.8488617E-2,-5.976615E-2,8.747673E-2,3.0794183E-2,-2.4716131E-2,1.27805E-1,-6.0257368E-2,4.3001706E-3,1.3870287E-2,7.529668E-3,-7.965322E-3,-2.1120708E-3,-2.3230987E-3,4.161799E-3],"categories":[],"categories_nodes":[],"categories_segments":[],"categories_sizes":[],"default_left":[0,0,0,0,0,0,0,0,0,0,0,0,0,0,0,0,0,0,0],"id":12,"left_children":[1,-1,3,5,7,9,-1,-1,-1,11,13,15,17,-1,-1,-1,-1,-1,-1],"loss_changes":[4.889753E0,0E0,1.9897361E0,8.064473E-1,5.329001E-1,3.399263E-1,0E0,0E0,0E0,3.222865E-2,5.5785775E-3,8.94491E-3,1.9460075E-2,0E0,0E0,0E0,0E0,0E0,0E0],"parents":[2147483647,0,0,2,2,3,3,4,4,5,5,9,9,10,10,11,11,12,12],"right_children":[2,-1,4,6,8,10,-1,-1,-1,12,14,16,18,-1,-1,-1,-1,-1,-1],"split_conditions":[1.16E1,-5.863118E-2,1.2524762E1,1.25595E1,1.3E1,1.2078E1,-5.976615E-2,8.747673E-2,3.0794183E-2,1.5E1,6.4909265E2,1E0,1.1845956E1,1.3870287E-2,7.529668E-3,-7.965322E-3,-2.1120708E-3,-2.3230987E-3,4.161799E-3],"split_indices":[3,0,18,3,0,18,0,0,0,0,12,2,18,0,0,0,0,0,0],"split_type":[0,0,0,0,0,0,0,0,0,0,0,0,0,0,0,0,0,0,0],"sum_hessian":[8E1,1.1E1,6.9E1,5.8E1,1.1E1,5.7E1,1E0,2E0,9E0,3E1,2.7E1,1.3E1,1.7E1,2.1E1,6E0,8E0,5E0,1E1,7E0],"tree_param":{"num_deleted":"0","num_feature":"20","num_nodes":"19","size_leaf_vector":"1"}},{"base_weights":[3.3275464E-3,-5.325668E-2,9.514761E-2,3.4318693E-2,5.036193E-1,5.3496987E-2,-5.677786E-2,8.1644945E-2,2.976036E-2,-2.2510283E-2,1.2777855E-1,-5.4951463E-2,3.9723185E-3,1.0595568E-1,1.7727483E-2,-9.034405E-3,-3.1760025E-3,-1.3921806E-3,5.3281407E-3,1.14213545E-2,6.2146503E-3],"categories":[],"categories_nodes":[],"categories_segments":[],"categories_sizes":[],"default_left":[0,0,0,0,0,0,0,0,0,0,0,0,0,0,0,0,0,0,0,0,0],"id":13,"left_children":[1,-1,3,5,7,9,-1,-1,-1,11,13,15,17,19,-1,-1,-1,-1,-1,-1,-1],"loss_changes":[4.0363464E0,0E0,1.7219987E0,7.4630076E-1,3.3705306E-1,3.4727854E-1,0E0,0E0,0E0,2.685122E-2,1.4701426E-2,8.6219385E-3,1.6623946E-2,1.5845299E-3,0E0,0E0,0E0,0E0,0E0,0E0,0E0],"parents":[2147483647,0,0,2,2,3,3,4,4,5,5,9,9,10,10,11,11,12,12,13,13],"right_children":[2,-1,4,6,8,10,-1,-1,-1,12,14,16,18,20,-1,-1,-1,-1,-1,-1,-1],"split_conditions":[1.16E1,-5.325668E-2,1.301E1,1.301E1,1.3E1,1.2078E1,-5.677786E-2,8.1644945E-2,2.976036E-2,1.5E1,2.1651E2,6.496456E2,1.1859048E1,1.3805954E2,1.7727483E-2,-9.034405E-3,-3.1760025E-3,-1.3921806E-3,5.3281407E-3,1.14213545E-2,6.2146503E-3],"split_indices":[3,0,18,3,0,18,0,0,0,0,10,14,4,11,0,0,0,0,0,0,0],"split_type":[0,0,0,0,0,0,0,0,0,0,0,0,0,0,0,0,0,0,0,0,0],"sum_hessian":[8E1,1.1E1,6.9E1,6.1E1,8E0,6E1,1E0,2E0,6E0,3E1,3E1,1.3E1,1.7E1,2.3E1,7E0,4E0,9E0,1.3E1,4E0,1.8E1,5E0],"tree_param":{"num_deleted":"0","num_feature":"20","num_nodes":"21","size_leaf_vector":"1"}},{"base_weights":[3.3461489E-3,-4.8374787E-2,8.680018E-2,3.040792E-2,4.6563572E-1,4.8591316E-2,-5.3938963E-2,7.6201946E-2,2.7209474E-2,-2.052621E-2,1.1614138E-1,-3.293716E-2,3.6675613E-2,9.88249E-2,1.7182255E-2,-2.2215885E-3,-8.635021E-3,8.0404285E-4,4.8983097E-3,6.7140483E-3,1.1164958E-2],"categories":[],"categories_nodes":[],"categories_segments":[],"categories_sizes":[],"default_left":[0,0,0,0,0,0,0,0,0,0,0,0,0,0,0,0,0,0,0,0,0],"id":14,"left_children":[1,-1,3,5,7,9,-1,-1,-1,11,13,15,17,19,-1,-1,-1,-1,-1,-1,-1],"loss_changes":[3.3346364E0,0E0,1.4812784E0,6.685826E-1,3.0892026E-1,2.8718638E-1,0E0,0E0,0E0,2.3215786E-2,1.2909919E-2,1.297071E-2,1.7207172E-3,3.0686855E-3,0E0,0E0,0E0,0E0,0E0,0E0,0E0],"parents":[2147483647,0,0,2,2,3,3,4,4,5,5,9,9,10,10,11,11,12,12,13,13],"right_children":[2,-1,4,6,8,10,-1,-1,-1,12,14,16,18,20,-1,-1,-1,-1,-1,-1,-1],"split_conditions":[1.16E1,-4.8374787E-2,1.301E1,1.301E1,1.3E1,1.2078E1,-5.3938963E-2,7.6201946E-2,2.7209474E-2,1.6E1,2.284225E2,1.1859048E1,1.1825652E1,1.239E1,1.7182255E-2,-2.2215885E-3,-8.635021E-3,8.0404285E-4,4.8983097E-3,6.7140483E-3,1.1164958E-2],"split_indices":[3,0,18,3,0,18,0,0,0,0,10,5,4,3,0,0,0,0,0,0,0],"split_type":[0,0,0,0,0,0,0,0,0,0,0,0,0,0,0,0,0,0,0,0,0],"sum_hessian":[8E1,1.1E1,6.9E1,6.1E1,8E0,6E1,1E0,2E0,6E0,3E1,3E1,2.5E1,5E0,2.5E1,5E0,2.2E1,3E0,2E0,3E0,9E0,1.6E1],"tree_param":{"num_deleted":"0","num_feature":"20","num_nodes":"21","size_leaf_vector":"1"}},{"base_weights":[3.3945506E-3,-4.3940403E-2,7.925438E-2,2.6979769E-2,4.3056235E-1,4.4222724E-2,-5.124202E-2,7.112179E-2,2.4877248E-2,-1.8639533E-2,1.0565844E-1,-4.689128E-2,4.369577E-3,8.963031E-2,1.5750391E-2,-6.6381576E-3,-1.7917905E-3,-3.07639E-3,2.4499975E-3,6.1098E-3,1.0114165E-2],"categories":[],"categories_nodes":[],"categories_segments":[],"categories_sizes":[],"default_left":[0,0,0,0,0,0,0,0,0,0,0,0,0,0,0,0,0,0,0,0,0],"id":15,"left_children":[1,-1,3,5,7,9,-1,-1,-1,11,13,15,17,19,-1,-1,-1,-1,-1,-1,-1],"loss_changes":[2.7556653E0,0E0,1.2738976E0,5.9931314E-1,2.822516E-1,2.3755066E-1,0E0,0E0,0E0,2.0356372E-2,1.1643469E-2,6.7163743E-3,1.3484229E-2,2.360016E-3,0E0,0E0,0E0,0E0,0E0,0E0,0E0],"parents":[2147483647,0,0,2,2,3,3,4,4,5,5,9,9,10,10,11,11,12,12,13,13],"right_children":[2,-1,4,6,8,10,-1,-1,-1,12,14,16,18,20,-1,-1,-1,-1,-1,-1,-1],"split_conditions":[1.16E1,-4.3940403E-2,1.301E1,1.301E1,1.3E1,1.2078E1,-5.124202E-2,7.112179E-2,2.4877248E-2,1.5E1,2.284225E2,4.5E1,1.1796785E1,1.239E1,1.5750391E-2,-6.6381576E-3,-1.7917905E-3,-3.07639E-3,2.4499975E-3,6.1098E-3,1.0114165E-2],"split_indices":[3,0,18,3,0,18,0,0,0,0,10,1,19,3,0,0,0,0,0,0,0],"split_type":[0,0,0,0,0,0,0,0,0,0,0,0,0,0,0,0,0,0,0,0,0],"sum_hessian":[8E1,1.1E1,6.9E1,6.1E1,8E0,6E1,1E0,2E0,6E0,3E1,3E1,1.3E1,1.7E1,2.5E1,5E0,7E0,6E0,6E0,1.1E1,9E0,1.6E1],"tree_param":{"num_deleted":"0","num_feature":"20","num_nodes":"21","size_leaf_vector":"1"}},{"base_weights":[3.3482327E-3,-3.9912518E-2,7.2295845E-2,2.3825122E-2,3.9817238E-1,4.017633E-2,-4.8679926E-2,7.6535225E-2,2.5660587E-2,-1.706757E-2,9.612422E-2,-2.7715243E-2,3.1916935E-2,7.887355E-2,1.35860685E-2,1.812511E-4,-4.0939385E-3,5.871137E-4,4.347205E-3,8.501484E-3,4.6280543E-3],"categories":[],"categories_nodes":[],"categories_segments":[],"categories_sizes":[],"default_left":[0,0,0,0,0,0,0,0,0,0,0,0,0,0,0,0,0,0,0,0,0],"id":16,"left_children":[1,-1,3,5,7,9,-1,-1,-1,11,13,15,17,19,-1,-1,-1,-1,-1,-1,-1],"loss_changes":[2.276571E0,0E0,1.0961964E0,5.3721595E-1,2.7142942E-1,1.9700381E-1,0E0,0E0,0E0,1.7053287E-2,1.0534078E-2,1.0226663E-2,1.5505431E-3,8.6937845E-4,0E0,0E0,0E0,0E0,0E0,0E0,0E0],"parents":[2147483647,0,0,2,2,3,3,4,4,5,5,9,9,10,10,11,11,12,12,13,13],"right_children":[2,-1,4,6,8,10,-1,-1,-1,12,14,16,18,20,-1,-1,-1,-1,-1,-1,-1],"split_conditions":[1.16E1,-3.9912518E-2,1.301E1,1.301E1,3E0,1.2078E1,-4.8679926E-2,7.6535225E-2,2.5660587E-2,1.6E1,2.1651E2,2.943E1,1.1825652E1,1.3805954E2,1.35860685E-2,1.812511E-4,-4.0939385E-3,5.871137E-4,4.347205E-3,8.501484E-3,4.6280543E-3],"split_indices":[3,0,18,3,0,18,0,0,0,0,10,10,4,11,0,0,0,0,0,0,0],"split_type":[0,0,0,0,0,0,0,0,0,0,0,0,0,0,0,0,0,0,0,0,0],"sum_hessian":[8E1,1.1E1,6.9E1,6.1E1,8E0,6E1,1E0,1E0,7E0,3E1,3E1,2.5E1,5E0,2.3E1,7E0,8E0,1.7E1,2E0,3E0,1.8E1,5E0],"tree_param":{"num_deleted":"0","num_feature":"20","num_nodes":"21","size_leaf_vector":"1"}},{"base_weights":[3.5238971E-3,-3.6253896E-2,6.622719E-2,2.1105012E-2,3.697103E-1,3.661359E-2,-4.624591E-2,7.2708465E-2,2.3415292E-2,-1.532773E-2,8.737382E-2,-4.022387E-2,4.8874747E-3,7.347096E-2,1.3305728E-2,-6.890545E-3,-2.1860695E-3,-1.0667434E-3,3.77752E-3,4.988432E-3,8.302364E-3],"categories":[],"categories_nodes":[],"categories_segments":[],"categories_sizes":[],"default_left":[0,0,0,0,0,0,0,0,0,0,0,0,0,0,0,0,0,0,0,0,0],"id":17,"left_children":[1,-1,3,5,7,9,-1,-1,-1,11,13,15,17,19,-1,-1,-1,-1,-1,-1,-1],"loss_changes":[1.8832312E0,0E0,9.507646E-1,4.8189455E-1,2.6575363E-1,1.6216901E-1,0E0,0E0,0E0,1.5798291E-2,9.913206E-3,5.867267E-3,9.611145E-3,1.7166287E-3,0E0,0E0,0E0,0E0,0E0,0E0,0E0],"parents":[2147483647,0,0,2,2,3,3,4,4,5,5,9,9,10,10,11,11,12,12,13,13],"right_children":[2,-1,4,6,8,10,-1,-1,-1,12,14,16,18,20,-1,-1,-1,-1,-1,-1,-1],"split_conditions":[1.16E1,-3.6253896E-2,1.301E1,1.301E1,3E0,1.2078E1,-4.624591E-2,7.2708465E-2,2.3415292E-2,1.5E1,2.284225E2,6.496456E2,1.18365E1,1.239E1,1.3305728E-2,-6.890545E-3,-2.1860695E-3,-1.0667434E-3,3.77752E-3,4.988432E-3,8.302364E-3],"split_indices":[3,0,18,3,0,18,0,0,0,0,10,14,4,3,0,0,0,0,0,0,0],"split_type":[0,0,0,0,0,0,0,0,0,0,0,0,0,0,0,0,0,0,0,0,0],"sum_hessian":[8E1,1.1E1,6.9E1,6.1E1,8E0,6E1,1E0,1E0,7E0,3E1,3E1,1.3E1,1.7E1,2.5E1,5E0,4E0,9E0,1.2E1,5E0,9E0,1.6E1],"tree_param":{"num_deleted":"0","num_feature":"20","num_nodes":"21","size_leaf_vector":"1"}},{"base_weights":[3.5893829E-3,-3.2930622E-1,6.060592E-2,-3.6518108E-2,-1.662612E-2,1.8574823E-2,3.434195E-1,3.3283796E-2,-4.393363E-2,6.907306E-2,2.136643E-2,-1.4000246E-2,7.949417E-2,-3.6850043E-2,4.5496095E-3,6.663477E-2,1.2196923E-2,-6.3393214E-3,-1.9893458E-3,-2.3702893E-3,2.0651103E-3,4.539452E-3,7.5209336E-3],"categories":[],"categories_nodes":[],"categories_segments":[],"categories_sizes":[],"default_left":[0,0,0,0,0,0,0,0,0,0,0,0,0,0,0,0,0,0,0,0,0,0,0],"id":18,"left_children":[1,3,5,-1,-1,7,9,11,-1,-1,-1,13,15,17,19,21,-1,-1,-1,-1,-1,-1,-1],"loss_changes":[1.557383E0,9.475231E-3,8.2570857E-1,0E0,0E0,4.3221775E-1,2.580043E-1,1.3439876E-1,0E0,0E0,0E0,1.3307328E-2,8.804947E-3,5.040033E-3,8.677825E-3,1.3211891E-3,0E0,0E0,0E0,0E0,0E0,0E0,0E0],"parents":[2147483647,0,0,1,1,2,2,5,5,6,6,7,7,11,11,12,12,13,13,14,14,15,15],"right_children":[2,4,6,-1,-1,8,10,12,-1,-1,-1,14,16,18,20,22,-1,-1,-1,-1,-1,-1,-1],"split_conditions":[1.16E1,9.944375E0,1.301E1,-3.6518108E-2,-1.662612E-2,1.301E1,3E0,1.2078E1,-4.393363E-2,6.907306E-2,2.136643E-2,1.5E1,2.284225E2,6.496456E2,1.1796785E1,1.239E1,1.2196923E-2,-6.3393214E-3,-1.9893458E-3,-2.3702893E-3,2.0651103E-3,4.539452E-3,7.5209336E-3],"split_indices":[3,3,18,0,0,3,0,18,0,0,0,0,10,14,19,3,0,0,0,0,0,0,0],"split_type":[0,0,0,0,0,0,0,0,0,0,0,0,0,0,0,0,0,0,0,0,0,0,0],"sum_hessian":[8E1,1.1E1,6.9E1,8E0,3E0,6.1E1,8E0,6E1,1E0,1E0,7E0,3E1,3E1,1.3E1,1.7E1,2.5E1,5E0,4E0,9E0,6E0,1.1E1,9E0,1.6E1],"tree_param":{"num_deleted":"0","num_feature":"20","num_nodes":"23","size_leaf_vector":"1"}},{"base_weights":[3.341498E-3,-3.184784E-1,5.3153858E-2,-3.6981773E-1,9.745741E-3,2.5096167E-2,4.1849613E-1,-1.3600826E-2,-4.1126907E-2,-3.3689752E-2,8.3143964E-2,5.6755036E-2,1.2994321E-2,-1.5658681E-1,-7.101059E-3,6.0640447E-2,1.3891591E-1,-6.443628E-3,-1.86553E-2,-2.5480382E-2,1.7479677E-2,3.141918E-3,6.4525255E-3,4.044819E-3,1.4616835E-2,-3.3425998E-3,-1.2363315E-3,4.5560204E-4,3.7246326E-3],"categories":[],"categories_nodes":[],"categories_segments":[],"categories_sizes":[],"default_left":[0,0,0,0,0,0,0,0,0,0,0,0,0,0,0,0,0,0,0,0,0,0,0,0,0,0,0,0,0],"id":19,"left_children":[1,3,5,7,-1,9,11,-1,-1,13,15,-1,-1,17,19,21,23,-1,-1,25,27,-1,-1,-1,-1,-1,-1,-1,-1],"loss_changes":[1.3154076E0,2.70934E-1,7.172942E-1,4.0981174E-2,0E0,2.3143144E-1,1.4130086E-1,0E0,0E0,1.0998892E-1,3.4248292E-2,0E0,0E0,4.547626E-3,1.354693E-2,9.2417E-4,5.149394E-4,0E0,0E0,1.3585389E-3,3.1512505E-3,0E0,0E0,0E0,0E0,0E0,0E0,0E0,0E0],"parents":[2147483647,0,0,1,1,2,2,3,3,5,5,6,6,9,9,10,10,13,13,14,14,15,15,16,16,19,19,20,20],"right_children":[2,4,6,8,-1,10,12,-1,-1,14,16,-1,-1,18,20,22,24,-1,-1,26,28,-1,-1,-1,-1,-1,-1,-1,-1],"split_conditions":[6.47843E2,1.5E1,1.3446667E1,2.0686842E1,9.745741E-3,1.2078E1,1.3E1,-1.3600826E-2,-4.1126907E-2,6.49224E2,1.2476666E1,5.6755036E-2,1.2994321E-2,1E0,1.1804384E1,3.39775E1,5E0,-6.443628E-3,-1.86553E-2,2.2555357E2,1.1859048E1,3.141918E-3,6.4525255E-3,4.044819E-3,1.4616835E-2,-3.3425998E-3,-1.2363315E-3,4.5560204E-4,3.7246326E-3],"split_indices":[14,0,18,6,0,18,0,0,0,13,3,0,0,2,18,8,1,0,0,9,4,0,0,0,0,0,0,0,0],"split_type":[0,0,0,0,0,0,0,0,0,0,0,0,0,0,0,0,0,0,0,0,0,0,0,0,0,0,0,0,0],"sum_hessian":[8E1,1E1,7E1,9E0,1E0,6.6E1,4E0,2E0,7E0,3.3E1,3.3E1,2E0,2E0,5E0,2.8E1,2.5E1,8E0,2E0,3E0,1.6E1,1.2E1,4E0,2.1E1,1E0,7E0,9E0,7E0,8E0,4E0],"tree_param":{"num_deleted":"0","num_feature":"20","num_nodes":"29","size_leaf_vector":"1"}},{"base_weights":[3.3470555E-3,-2.9071972E-1,4.8859555E-2,-3.3830863E-1,9.258461E-3,2.2627573E-2,3.905962E-1,-1.2694137E-2,-3.7528276E-2,-3.1070905E-2,7.5660534E-2,6.278167E-2,1.7433692E-2,-1.451114E-1,-6.40491E-3,5.4945324E-2,1.2709777E-2,-6.0140295E-3,-1.725619E-2,-2.320183E-2,1.605298E-2,6.2703015E-3,3.866638E-2,-2.6308505E-3,6.5485633E-6,4.1508145E-4,3.4266282E-3,4.4127465E-3,9.394328E-4],"categories":[],"categories_nodes":[],"categories_segments":[],"categories_sizes":[],"default_left":[0,0,0,0,0,0,0,0,0,0,0,0,0,0,0,0,0,0,0,0,0,0,0,0,0,0,0,0,0],"id":20,"left_children":[1,3,5,7,-1,9,11,-1,-1,13,15,-1,-1,17,19,21,-1,-1,-1,23,25,-1,27,-1,-1,-1,-1,-1,-1],"loss_changes":[1.0982853E0,2.3197359E-1,6.276363E-1,3.0512333E-2,0E0,1.9315273E-1,1.4705402E-1,0E0,0E0,9.470995E-2,2.9244706E-2,0E0,0E0,3.6170632E-3,1.1311937E-2,8.5897E-4,0E0,0E0,0E0,1.2305509E-3,2.6758777E-3,0E0,1.3438817E-3,0E0,0E0,0E0,0E0,0E0,0E0],"parents":[2147483647,0,0,1,1,2,2,3,3,5,5,6,6,9,9,10,10,13,13,14,14,15,15,19,19,20,20,22,22],"right_children":[2,4,6,8,-1,10,12,-1,-1,14,16,-1,-1,18,20,22,-1,-1,-1,24,26,-1,28,-1,-1,-1,-1,-1,-1],"split_conditions":[6.47843E2,1.5E1,1.3446667E1,2.0686842E1,9.258461E-3,1.2078E1,3E0,-1.2694137E-2,-3.7528276E-2,6.49224E2,1.2476666E1,6.278167E-2,1.7433692E-2,1E0,1.1804384E1,4E1,1.2709777E-2,-6.0140295E-3,-1.725619E-2,6.508333E2,1.1859048E1,6.2703015E-3,4.9837E1,-2.6308505E-3,6.5485633E-6,4.1508145E-4,3.4266282E-3,4.4127465E-3,9.394328E-4],"split_indices":[14,0,18,6,0,18,0,0,0,13,3,0,0,2,18,1,0,0,0,12,4,0,6,0,0,0,0,0,0],"split_type":[0,0,0,0,0,0,0,0,0,0,0,0,0,0,0,0,0,0,0,0,0,0,0,0,0,0,0,0,0],"sum_hessian":[8E1,1E1,7E1,9E0,1E0,6.6E1,4E0,2E0,7E0,3.3E1,3.3E1,1E0,3E0,5E0,2.8E1,2.5E1,8E0,2E0,3E0,1.6E1,1.2E1,1.5E1,1E1,1.4E1,2E0,8E0,4E0,8E0,2E0],"tree_param":{"num_deleted":"0","num_feature":"20","num_nodes":"29","size_leaf_vector":"1"}},{"base_weights":[3.5251216E-3,-2.6537183E-1,4.5135565E-2,-3.0950013E-1,8.795547E-3,2.0398922E-2,3.6757946E-1,-3.5849597E-2,-1.4638233E-2,-2.8612277E-2,6.881016E-2,5.96426E-2,1.6126132E-2,-1.3447888E-1,-5.7222103E-3,4.9897783E-2,1.1580033E-1,-5.613105E-3,-1.5962005E-2,-2.1035755E-2,1.4743364E-2,2.5375176E-3,5.320302E-3,3.2071115E-3,1.2225759E-2,-3.1661305E-3,-1.23617E-3,3.7820605E-4,3.1525039E-3],"categories":[],"categories_nodes":[],"categories_segments":[],"categories_sizes":[],"default_left":[0,0,0,0,0,0,0,0,0,0,0,0,0,0,0,0,0,0,0,0,0,0,0,0,0,0,0,0,0],"id":21,"left_children":[1,3,5,7,-1,9,11,-1,-1,13,15,-1,-1,17,19,21,23,-1,-1,25,27,-1,-1,-1,-1,-1,-1,-1,-1],"loss_changes":[9.182804E-1,1.987313E-1,5.588105E-1,2.7443528E-2,0E0,1.6093922E-1,1.398955E-1,0E0,0E0,8.1622474E-2,2.4437472E-2,0E0,0E0,2.858892E-3,9.398753E-3,7.5734407E-4,9.4501674E-4,0E0,0E0,1.175446E-3,2.2721079E-3,0E0,0E0,0E0,0E0,0E0,0E0,0E0,0E0],"parents":[2147483647,0,0,1,1,2,2,3,3,5,5,6,6,9,9,10,10,13,13,14,14,15,15,16,16,19,19,20,20],"right_children":[2,4,6,8,-1,10,12,-1,-1,14,16,-1,-1,18,20,22,24,-1,-1,26,28,-1,-1,-1,-1,-1,-1,-1,-1],"split_conditions":[6.47843E2,1.5E1,1.3446667E1,1.4E1,8.795547E-3,1.2078E1,3E0,-3.5849597E-2,-1.4638233E-2,6.49224E2,1.2476666E1,5.96426E-2,1.6126132E-2,1E0,1.1804384E1,3.39775E1,5E0,-5.613105E-3,-1.5962005E-2,2.884875E1,1.1859048E1,2.5375176E-3,5.320302E-3,3.2071115E-3,1.2225759E-2,-3.1661305E-3,-1.23617E-3,3.7820605E-4,3.1525039E-3],"split_indices":[14,0,18,0,0,18,0,0,0,13,3,0,0,2,18,8,1,0,0,6,4,0,0,0,0,0,0,0,0],"split_type":[0,0,0,0,0,0,0,0,0,0,0,0,0,0,0,0,0,0,0,0,0,0,0,0,0,0,0,0,0],"sum_hessian":[8E1,1E1,7E1,9E0,1E0,6.6E1,4E0,6E0,3E0,3.3E1,3.3E1,1E0,3E0,5E0,2.8E1,2.5E1,8E0,2E0,3E0,1.6E1,1.2E1,4E0,2.1E1,1E0,7E0,6E0,1E1,8E0,4E0],"tree_param":{"num_deleted":"0","num_feature":"20","num_nodes":"29","size_leaf_vector":"1"}},{"base_weights":[3.603535E-3,-2.4262498E-1,4.170086E-2,-2.83599E-1,8.355761E-3,1.8371398E-2,3.459755E-1,-3.277678E-2,-1.3540387E-2,-2.641145E-2,6.2613904E-2,5.6660462E-2,1.4916706E-2,-1.2462696E-1,-5.18026E-3,4.5209996E-2,1.0593478E-1,-5.2388827E-3,-1.4764882E-2,-1.9191237E-2,1.3540268E-2,5.1836492E-3,3.1461455E-2,3.046751E-3,1.1155975E-2,-2.597208E-3,-8.3162787E-4,3.4455195E-4,2.900276E-3,3.6712543E-3,5.221049E-4],"categories":[],"categories_nodes":[],"categories_segments":[],"categories_sizes":[],"default_left":[0,0,0,0,0,0,0,0,0,0,0,0,0,0,0,0,0,0,0,0,0,0,0,0,0,0,0,0,0,0,0],"id":22,"left_children":[1,3,5,7,-1,9,11,-1,-1,13,15,-1,-1,17,19,21,23,-1,-1,25,27,-1,29,-1,-1,-1,-1,-1,-1,-1,-1],"loss_changes":[7.699501E-1,1.70712E-1,4.9764195E-1,2.107495E-2,0E0,1.344012E-1,1.3258964E-1,0E0,0E0,7.0252284E-2,2.084507E-2,0E0,0E0,2.243191E-3,7.866348E-3,7.37872E-4,4.215613E-4,0E0,0E0,1.0376126E-3,1.9292405E-3,0E0,1.3240194E-3,0E0,0E0,0E0,0E0,0E0,0E0,0E0,0E0],"parents":[2147483647,0,0,1,1,2,2,3,3,5,5,6,6,9,9,10,10,13,13,14,14,15,15,16,16,19,19,20,20,22,22],"right_children":[2,4,6,8,-1,10,12,-1,-1,14,16,-1,-1,18,20,22,24,-1,-1,26,28,-1,30,-1,-1,-1,-1,-1,-1,-1,-1],"split_conditions":[6.47843E2,1.5E1,1.3446667E1,1.4E1,8.355761E-3,1.2078E1,3E0,-3.277678E-2,-1.3540387E-2,6.49224E2,1.2476666E1,5.6660462E-2,1.4916706E-2,1E0,1.1804384E1,4E1,5E0,-5.2388827E-3,-1.4764882E-2,2.2555357E2,1.1859048E1,5.1836492E-3,4.9837E1,3.046751E-3,1.1155975E-2,-2.597208E-3,-8.3162787E-4,3.4455195E-4,2.900276E-3,3.6712543E-3,5.221049E-4],"split_indices":[14,0,18,0,0,18,0,0,0,13,3,0,0,2,18,1,1,0,0,9,4,0,6,0,0,0,0,0,0,0,0],"split_type":[0,0,0,0,0,0,0,0,0,0,0,0,0,0,0,0,0,0,0,0,0,0,0,0,0,0,0,0,0,0,0],"sum_hessian":[8E1,1E1,7E1,9E0,1E0,6.6E1,4E0,6E0,3E0,3.3E1,3.3E1,1E0,3E0,5E0,2.8E1,2.5E1,8E0,2E0,3E0,1.6E1,1.2E1,1.5E1,1E1,1E0,7E0,9E0,7E0,8E0,4E0,8E0,2E0],"tree_param":{"num_deleted":"0","num_feature":"20","num_nodes":"31","size_leaf_vector":"1"}},{"base_weights":[3.7000915E-3,-2.2181354E-1,3.858671E-2,-2.5987083E-1,7.937956E-3,1.6584909E-2,3.2569352E-1,-3.128783E-2,-1.4428767E-2,-2.4364106E-2,5.7046134E-2,5.382743E-2,1.3797975E-2,-1.1549839E-1,-4.6685976E-3,4.3188434E-2,1.0432748E-2,-4.8896475E-3,-1.3657522E-2,-1.7474007E-2,1.243606E-2,4.964537E-2,2.8696321E-2,-2.6973726E-3,-9.840186E-4,3.139496E-4,2.6682664E-3,5.1002223E-3,1.3289452E-3,3.8749694E-3,1.3860225E-3],"categories":[],"categories_nodes":[],"categories_segments":[],"categories_sizes":[],"default_left":[0,0,0,0,0,0,0,0,0,0,0,0,0,0,0,0,0,0,0,0,0,0,0,0,0,0,0,0,0,0,0],"id":23,"left_children":[1,3,5,7,-1,9,11,-1,-1,13,15,-1,-1,17,19,21,-1,-1,-1,23,25,27,29,-1,-1,-1,-1,-1,-1,-1,-1],"loss_changes":[6.458192E-1,1.467169E-1,4.4309598E-1,1.6123235E-2,0E0,1.12398654E-1,1.2525076E-1,0E0,0E0,6.048861E-2,1.7771415E-2,0E0,0E0,1.7444938E-3,6.5692393E-3,1.1954531E-3,0E0,0E0,0E0,9.673992E-4,1.638008E-3,2.1014363E-4,1.1036023E-3,0E0,0E0,0E0,0E0,0E0,0E0,0E0,0E0],"parents":[2147483647,0,0,1,1,2,2,3,3,5,5,6,6,9,9,10,10,13,13,14,14,15,15,19,19,20,20,21,21,22,22],"right_children":[2,4,6,8,-1,10,12,-1,-1,14,16,-1,-1,18,20,22,-1,-1,-1,24,26,28,30,-1,-1,-1,-1,-1,-1,-1,-1],"split_conditions":[6.47843E2,1.5E1,1.3446667E1,6.478331E2,7.937956E-3,1.2078E1,3E0,-3.128783E-2,-1.4428767E-2,6.49224E2,1.2524762E1,5.382743E-2,1.3797975E-2,1E0,1.1804384E1,4E1,1.0432748E-2,-4.8896475E-3,-1.3657522E-2,2.884875E1,1.1859048E1,2.654975E2,2.3615E1,-2.6973726E-3,-9.840186E-4,3.139496E-4,2.6682664E-3,5.1002223E-3,1.3289452E-3,3.8749694E-3,1.3860225E-3],"split_indices":[14,0,18,12,0,18,0,0,0,13,18,0,0,2,18,1,0,0,0,6,4,9,11,0,0,0,0,0,0,0,0],"split_type":[0,0,0,0,0,0,0,0,0,0,0,0,0,0,0,0,0,0,0,0,0,0,0,0,0,0,0,0,0,0,0],"sum_hessian":[8E1,1E1,7E1,9E0,1E0,6.6E1,4E0,5E0,4E0,3.3E1,3.3E1,1E0,3E0,5E0,2.8E1,2.7E1,6E0,2E0,3E0,1.6E1,1.2E1,1.7E1,1E1,6E0,1E1,8E0,4E0,1.6E1,1E0,5E0,5E0],"tree_param":{"num_deleted":"0","num_feature":"20","num_nodes":"31","size_leaf_vector":"1"}},{"base_weights":[3.734106E-3,-8.4104635E-2,7.950997E-2,-2.222984E-1,-1.1772962E-2,4.9129795E-2,3.066494E-1,-1.1392937E-2,-2.578036E-2,-3.57296E-3,-5.793138E-3,3.4747817E-2,1.0231423E-2,5.1136065E-2,1.2763143E-2,-1.1561394E-2,3.8233863E-3,1.4313316E-2,4.181437E-2,-1.5338898E-3,-1.5419006E-2,-7.7147485E-4,6.2299967E-3,-3.8051128E-3,2.435949E-2,4.37217E-2,2.1347284E-2,-3.3245087E-4,2.814293E-4,-2.0063536E-3,-3.436327E-4,1.2143453E-4,7.69949E-4,5.270958E-4,2.6086688E-3,4.464531E-3,1.2624741E-3,3.5217286E-3,-1.0131359E-3],"categories":[],"categories_nodes":[],"categories_segments":[],"categories_sizes":[],"default_left":[0,0,0,0,0,0,0,0,0,0,0,0,0,0,0,0,0,0,0,0,0,0,0,0,0,0,0,0,0,0,0,0,0,0,0,0,0,0,0],"id":24,"left_children":[1,3,5,7,9,11,13,-1,-1,-1,15,17,-1,-1,-1,19,21,23,25,27,29,-1,31,-1,33,35,37,-1,-1,-1,-1,-1,-1,-1,-1,-1,-1,-1,-1],"loss_changes":[5.458278E-1,3.7722287E-1,2.8855798E-1,2.0648241E-2,3.5176822E-3,2.7040698E-2,1.17969304E-1,0E0,0E0,0E0,1.2645564E-3,4.166741E-3,0E0,0E0,0E0,5.179001E-4,2.97973E-4,6.1875293E-3,3.5613775E-6,4.828583E-5,4.875944E-4,0E0,4.961391E-5,0E0,1.5922496E-4,3.951788E-5,2.103234E-3,0E0,0E0,0E0,0E0,0E0,0E0,0E0,0E0,0E0,0E0,0E0,0E0],"parents":[2147483647,0,0,1,1,2,2,3,3,4,4,5,5,6,6,10,10,11,11,15,15,16,16,17,17,18,18,19,19,20,20,22,22,24,24,25,25,26,26],"right_children":[2,4,6,8,10,12,14,-1,-1,-1,16,18,-1,-1,-1,20,22,24,26,28,30,-1,32,-1,34,36,38,-1,-1,-1,-1,-1,-1,-1,-1,-1,-1,-1,-1],"split_conditions":[1.1919791E1,6.4827E2,1.3446667E1,2.08535E1,1.1694285E1,1.2524762E1,3E0,-1.1392937E-2,-2.578036E-2,-3.57296E-3,1.1796785E1,1.2193359E1,1.0231423E-2,5.1136065E-2,1.2763143E-2,6.5016907E2,5E0,1.5E1,4.9837E1,1.1793333E1,6.5042926E2,-7.7147485E-4,6.500225E2,-3.8051128E-3,1E1,2.654975E2,1.23005E1,-3.3245087E-4,2.814293E-4,-2.0063536E-3,-3.436327E-4,1.2143453E-4,7.69949E-4,5.270958E-4,2.6086688E-3,4.464531E-3,1.2624741E-3,3.5217286E-3,-1.0131359E-3],"split_indices":[18,12,18,6,3,18,0,0,0,0,19,18,0,0,0,14,1,0,6,3,12,0,12,0,1,9,3,0,0,0,0,0,0,0,0,0,0,0,0],"split_type":[0,0,0,0,0,0,0,0,0,0,0,0,0,0,0,0,0,0,0,0,0,0,0,0,0,0,0,0,0,0,0,0,0,0,0,0,0,0,0],"sum_hessian":[8E1,3.7E1,4.3E1,1.2E1,2.5E1,3.9E1,4E0,4E0,8E0,4E0,2.1E1,3.2E1,7E0,1E0,3E0,1.3E1,8E0,9E0,2.3E1,4E0,9E0,1E0,7E0,1E0,8E0,2E1,3E0,3E0,1E0,6E0,3E0,2E0,5E0,1E0,7E0,1.9E1,1E0,2E0,1E0],"tree_param":{"num_deleted":"0","num_feature":"20","num_nodes":"39","size_leaf_vector":"1"}},{"base_weights":[3.8383272E-3,-2.2522364E-2,2.1722634E-1,-2.313137E-1,6.7337034E-3,4.8579264E-2,1.2293148E-2,-1.3813821E-2,-2.7822647E-2,-8.006605E-2,2.0320792E-2,-3.2870867E-3,-1.1124802E-2,-2.773744E-3,3.977988E-2,-7.935784E-3,1.6616026E-2,3.115115E-2,5.741109E-3,-4.8709597E-4,-3.6148548E-3,4.9381255E-4,2.6647886E-3,2.1735956E-3,3.5651207E-3],"categories":[],"categories_nodes":[],"categories_segments":[],"categories_sizes":[],"default_left":[0,0,0,0,0,0,0,0,0,0,0,0,0,0,0,0,0,0,0,0,0,0,0,0,0],"id":25,"left_children":[1,3,5,7,9,-1,-1,-1,-1,11,13,-1,-1,15,17,19,21,23,-1,-1,-1,-1,-1,-1,-1],"loss_changes":[4.6052197E-1,4.4747183E-1,1.6820058E-1,9.0640783E-4,7.8285135E-2,0E0,0E0,0E0,0E0,9.587936E-3,2.5726058E-2,0E0,0E0,2.8343122E-3,2.9277615E-3,1.7261996E-3,5.71316E-4,1.9957311E-4,0E0,0E0,0E0,0E0,0E0,0E0,0E0],"parents":[2147483647,0,0,1,1,2,2,3,3,4,4,9,9,10,10,13,13,14,14,15,15,16,16,17,17],"right_children":[2,4,6,8,10,-1,-1,-1,-1,12,14,-1,-1,16,18,20,22,24,-1,-1,-1,-1,-1,-1,-1],"split_conditions":[1.301E1,6.478331E2,3E0,9.948564E0,1.1694285E1,4.8579264E-2,1.2293148E-2,-1.3813821E-2,-2.7822647E-2,1E0,1.2078E1,-3.2870867E-3,-1.1124802E-2,1.6E1,1.241E1,1.196E1,1.196E1,1.23700075E1,5.741109E-3,-4.8709597E-4,-3.6148548E-3,4.9381255E-4,2.6647886E-3,2.1735956E-3,3.5651207E-3],"split_indices":[18,14,0,19,3,0,0,0,0,2,18,0,0,0,3,3,4,18,0,0,0,0,0,0,0],"split_type":[0,0,0,0,0,0,0,0,0,0,0,0,0,0,0,0,0,0,0,0,0,0,0,0,0],"sum_hessian":[8E1,7.2E1,8E0,8E0,6.4E1,1E0,7E0,4E0,4E0,8E0,5.6E1,4E0,4E0,2.6E1,3E1,2.1E1,5E0,2.2E1,8E0,2E1,1E0,3E0,2E0,9E0,1.3E1],"tree_param":{"num_deleted":"0","num_feature":"20","num_nodes":"25","size_leaf_vector":"1"}},{"base_weights":[3.6442722E-3,-2.0893449E-2,2.0226754E-1,-2.1280861E-1,6.0008564E-3,4.6150304E-2,1.1217522E-2,-1.373353E-2,-2.7281642E-2,-9.428152E-2,1.5929079E-2,-2.6973726E-3,-1.0234833E-2,-5.5199624E-3,3.6172375E-2,-1.0339355E-2,1.5480836E-2,2.8285773E-2,5.230787E-3,-1.7004609E-3,1.3589859E-4,4.5676233E-4,2.4871507E-3,3.338027E-3,2.0834128E-3],"categories":[],"categories_nodes":[],"categories_segments":[],"categories_sizes":[],"default_left":[0,0,0,0,0,0,0,0,0,0,0,0,0,0,0,0,0,0,0,0,0,0,0,0,0],"id":26,"left_children":[1,3,5,7,9,-1,-1,-1,-1,11,13,-1,-1,15,17,19,21,23,-1,-1,-1,-1,-1,-1,-1],"loss_changes":[3.9900082E-1,3.7806106E-1,1.5842688E-1,3.2935739E-3,6.621749E-2,0E0,0E0,0E0,0E0,4.970394E-4,2.6251629E-2,0E0,0E0,3.1963945E-3,2.4653152E-3,1.9724197E-3,5.0129066E-4,1.7768517E-4,0E0,0E0,0E0,0E0,0E0,0E0,0E0],"parents":[2147483647,0,0,1,1,2,2,3,3,4,4,9,9,10,10,13,13,14,14,15,15,16,16,17,17],"right_children":[2,4,6,8,10,-1,-1,-1,-1,12,14,-1,-1,16,18,20,22,24,-1,-1,-1,-1,-1,-1,-1],"split_conditions":[1.301E1,6.478331E2,3E0,9.911053E0,1.1615294E1,4.6150304E-2,1.1217522E-2,-1.373353E-2,-2.7281642E-2,1E0,1.2078E1,-2.6973726E-3,-1.0234833E-2,1.6E1,1.241E1,1E0,1.196E1,3.5E1,5.230787E-3,-1.7004609E-3,1.3589859E-4,4.5676233E-4,2.4871507E-3,3.338027E-3,2.0834128E-3],"split_indices":[18,14,0,5,3,0,0,0,0,2,18,0,0,0,3,2,4,1,0,0,0,0,0,0,0],"split_type":[0,0,0,0,0,0,0,0,0,0,0,0,0,0,0,0,0,0,0,0,0,0,0,0,0],"sum_hessian":[8E1,7.2E1,8E0,8E0,6.4E1,1E0,7E0,5E0,3E0,5E0,5.9E1,1E0,4E0,2.9E1,3E1,2.4E1,5E0,2.2E1,8E0,1.5E1,9E0,3E0,2E0,1.1E1,1.1E1],"tree_param":{"num_deleted":"0","num_feature":"20","num_nodes":"25","size_leaf_vector":"1"}},{"base_weights":[3.4705976E-3,-1.937835E-2,1.8841532E-1,-1.9608477E-1,5.386822E-3,4.3842793E-2,1.0236025E-2,-1.2589042E-2,-2.523551E-2,-6.824546E-2,1.6918467E-2,-2.8681373E-3,-9.416047E-3,-2.0557686E-3,3.2898657E-2,4.414045E-4,-3.3491135E-3,2.5692815E-2,4.765818E-3,-9.069852E-4,1.0650342E-3,3.5007955E-3,2.1160392E-3],"categories":[],"categories_nodes":[],"categories_segments":[],"categories_sizes":[],"default_left":[0,0,0,0,0,0,0,0,0,0,0,0,0,0,0,0,0,0,0,0,0,0,0],"id":27,"left_children":[1,3,5,7,9,-1,-1,-1,-1,11,13,-1,-1,15,17,19,-1,21,-1,-1,-1,-1,-1],"loss_changes":[3.4594032E-1,3.205163E-1,1.4875609E-1,3.7796497E-3,5.6346197E-2,0E0,0E0,0E0,0E0,6.527081E-3,1.7350707E-2,0E0,0E0,2.134271E-3,2.072528E-3,2.6211923E-3,0E0,2.3028255E-4,0E0,0E0,0E0,0E0,0E0],"parents":[2147483647,0,0,1,1,2,2,3,3,4,4,9,9,10,10,13,13,14,14,15,15,17,17],"right_children":[2,4,6,8,10,-1,-1,-1,-1,12,14,-1,-1,16,18,20,-1,22,-1,-1,-1,-1,-1],"split_conditions":[1.301E1,6.478331E2,3E0,9.911053E0,1.1694285E1,4.3842793E-2,1.0236025E-2,-1.2589042E-2,-2.523551E-2,1E0,1.2078E1,-2.8681373E-3,-9.416047E-3,1.2095E1,1.241E1,1.1796785E1,-3.3491135E-3,1E0,4.765818E-3,-9.069852E-4,1.0650342E-3,3.5007955E-3,2.1160392E-3],"split_indices":[18,14,0,5,3,0,0,0,0,2,18,0,0,3,3,19,0,0,0,0,0,0,0],"split_type":[0,0,0,0,0,0,0,0,0,0,0,0,0,0,0,0,0,0,0,0,0,0,0],"sum_hessian":[8E1,7.2E1,8E0,8E0,6.4E1,1E0,7E0,5E0,3E0,8E0,5.6E1,4E0,4E0,2.6E1,3E1,2.5E1,1E0,2.2E1,8E0,1.3E1,1.2E1,5E0,1.7E1],"tree_param":{"num_deleted":"0","num_feature":"20","num_nodes":"23","size_leaf_vector":"1"}},{"base_weights":[3.2612719E-3,-1.220583E-2,2.4080238E-1,-1.519266E-1,8.520842E-3,4.165063E-2,9.274984E-3,-1.806789E-1,5.3421976E-3,-6.278621E-2,1.9074885E-2,-1.2349348E-2,-2.5388528E-2,-2.6387216E-3,-8.662797E-3,2.3934149E-4,3.7902452E-2,-6.107417E-3,1.4178276E-2,2.671996E-2,6.1026044E-2,-3.3681054E-4,-3.1816482E-3,3.426075E-4,1.8296924E-3,3.3891082E-3,2.111403E-3,1.629305E-3,6.4581037E-3],"categories":[],"categories_nodes":[],"categories_segments":[],"categories_sizes":[],"default_left":[0,0,0,0,0,0,0,0,0,0,0,0,0,0,0,0,0,0,0,0,0,0,0,0,0,0,0,0,0],"id":28,"left_children":[1,3,5,7,9,-1,-1,11,-1,13,15,-1,-1,-1,-1,17,19,21,23,25,27,-1,-1,-1,-1,-1,-1,-1,-1],"loss_changes":[3.0053908E-1,2.2428246E-1,9.143615E-2,6.869462E-2,5.2372925E-2,0E0,0E0,6.323874E-3,0E0,5.5244714E-3,2.1268578E-2,0E0,0E0,0E0,0E0,2.8290714E-3,6.126769E-3,1.442192E-3,3.8015866E-4,1.6883947E-4,3.790073E-4,0E0,0E0,0E0,0E0,0E0,0E0,0E0,0E0],"parents":[2147483647,0,0,1,1,2,2,3,3,4,4,7,7,9,9,10,10,15,15,16,16,17,17,18,18,19,19,20,20],"right_children":[2,4,6,8,10,-1,-1,12,-1,14,16,-1,-1,-1,-1,18,20,22,24,26,28,-1,-1,-1,-1,-1,-1,-1,-1],"split_conditions":[1.3446667E1,6.478331E2,3E0,1.5E1,1.1694285E1,4.165063E-2,9.274984E-3,9.944375E0,5.3421976E-3,1E0,1.2193359E1,-1.2349348E-2,-2.5388528E-2,-2.6387216E-3,-8.662797E-3,1.6E1,1.2476666E1,1.196E1,1.196E1,1E0,5E0,-3.3681054E-4,-3.1816482E-3,3.426075E-4,1.8296924E-3,3.3891082E-3,2.111403E-3,1.629305E-3,6.4581037E-3],"split_indices":[18,14,0,0,3,0,0,4,0,2,18,0,0,0,0,0,3,3,4,0,1,0,0,0,0,0,0,0,0],"split_type":[0,0,0,0,0,0,0,0,0,0,0,0,0,0,0,0,0,0,0,0,0,0,0,0,0,0,0,0,0],"sum_hessian":[8E1,7.6E1,4E0,9E0,6.7E1,1E0,3E0,8E0,1E0,8E0,5.9E1,6E0,2E0,4E0,4E0,3E1,2.9E1,2.1E1,9E0,2.1E1,8E0,2E1,1E0,3E0,6E0,7E0,1.4E1,1E0,7E0],"tree_param":{"num_deleted":"0","num_feature":"20","num_nodes":"29","size_leaf_vector":"1"}},{"base_weights":[3.1754058E-3,-1.1393856E-2,2.2690697E-1,-1.3997364E-1,7.6824916E-3,3.3560373E-2,4.257457E-3,-1.6680421E-1,5.0750733E-3,-5.77631E-2,1.737129E-2,-1.129085E-2,-2.3695946E-2,-2.4276162E-3,-7.969742E-3,1.7181519E-4,3.4565035E-2,-5.6567625E-3,1.2977505E-2,2.4297887E-2,5.5821948E-2,-3.0474892E-4,-3.0225755E-3,3.1692983E-4,1.6728266E-3,3.0925393E-3,1.914336E-3,2.334277E-3,6.1767036E-3],"categories":[],"categories_nodes":[],"categories_segments":[],"categories_sizes":[],"default_left":[0,0,0,0,0,0,0,0,0,0,0,0,0,0,0,0,0,0,0,0,0,0,0,0,0,0,0,0,0],"id":29,"left_children":[1,3,5,7,9,-1,-1,11,-1,13,15,-1,-1,-1,-1,17,19,21,23,25,27,-1,-1,-1,-1,-1,-1,-1,-1],"loss_changes":[2.6661327E-1,1.8994348E-1,8.589348E-2,5.963786E-2,4.412148E-2,0E0,0E0,7.274896E-3,0E0,4.6758726E-3,1.773747E-2,0E0,0E0,0E0,0E0,2.3872184E-3,5.1910803E-3,1.3182461E-3,3.148655E-4,1.5954114E-4,2.9601157E-4,0E0,0E0,0E0,0E0,0E0,0E0,0E0,0E0],"parents":[2147483647,0,0,1,1,2,2,3,3,4,4,7,7,9,9,10,10,15,15,16,16,17,17,18,18,19,19,20,20],"right_children":[2,4,6,8,10,-1,-1,12,-1,14,16,-1,-1,-1,-1,18,20,22,24,26,28,-1,-1,-1,-1,-1,-1,-1,-1],"split_conditions":[1.3446667E1,6.478331E2,1.3E1,1.5E1,1.1694285E1,3.3560373E-2,4.257457E-3,9.944375E0,5.0750733E-3,1E0,1.2193359E1,-1.129085E-2,-2.3695946E-2,-2.4276162E-3,-7.969742E-3,1.6E1,1.2476666E1,1.196E1,1.196E1,1E0,6.481539E2,-3.0474892E-4,-3.0225755E-3,3.1692983E-4,1.6728266E-3,3.0925393E-3,1.914336E-3,2.334277E-3,6.1767036E-3],"split_indices":[18,14,0,0,3,0,0,4,0,2,18,0,0,0,0,0,3,3,4,0,14,0,0,0,0,0,0,0,0],"split_type":[0,0,0,0,0,0,0,0,0,0,0,0,0,0,0,0,0,0,0,0,0,0,0,0,0,0,0,0,0],"sum_hessian":[8E1,7.6E1,4E0,9E0,6.7E1,2E0,2E0,8E0,1E0,8E0,5.9E1,6E0,2E0,4E0,4E0,3E1,2.9E1,2.1E1,9E0,2.1E1,8E0,2E1,1E0,3E0,6E0,7E0,1.4E1,2E0,6E0],"tree_param":{"num_deleted":"0","num_feature":"20","num_nodes":"29","size_leaf_vector":"1"}},{"base_weights":[2.9776066E-3,-1.0619647E-2,2.1177979E-1,-1.2896767E-1,6.940645E-3,3.7890054E-2,7.527447E-3,-1.5401141E-1,4.8213005E-3,-5.3141806E-2,1.5837336E-2,-1.1064231E-2,-2.504821E-2,-2.2333717E-2,-7.3321536E-3,1.1179524E-4,3.155915E-2,-6.5345765E-4,-2.464986E-3,-5.2419575E-3,1.1878872E-2,2.3370266E-2,5.5126874E-3,-2.4053256E-3,-2.158165E-4,2.9318334E-4,1.5294484E-3,1.6064883E-3,2.8315985E-3],"categories":[],"categories_nodes":[],"categories_segments":[],"categories_sizes":[],"default_left":[0,0,0,0,0,0,0,0,0,0,0,0,0,0,0,0,0,0,0,0,0,0,0,0,0,0,0,0,0],"id":30,"left_children":[1,3,5,7,9,-1,-1,11,-1,13,15,-1,-1,17,-1,19,21,-1,-1,23,25,27,-1,-1,-1,-1,-1,-1,-1],"loss_changes":[2.3221906E-1,1.6091852E-1,8.554283E-2,5.1798016E-2,3.719E-2,0E0,0E0,9.940699E-3,0E0,3.9577484E-3,1.4830514E-2,0E0,0E0,2.1888642E-5,0E0,2.0152072E-3,4.5014713E-3,0E0,0E0,1.2243122E-3,2.6075542E-4,4.122369E-4,0E0,0E0,0E0,0E0,0E0,0E0,0E0],"parents":[2147483647,0,0,1,1,2,2,3,3,4,4,7,7,9,9,10,10,13,13,15,15,16,16,19,19,20,20,21,21],"right_children":[2,4,6,8,10,-1,-1,12,-1,14,16,-1,-1,18,-1,20,22,-1,-1,24,26,28,-1,-1,-1,-1,-1,-1,-1],"split_conditions":[1.3446667E1,6.478331E2,3E0,1.5E1,1.1694285E1,3.7890054E-2,7.527447E-3,9.988889E0,4.8213005E-3,1E0,1.2193359E1,-1.1064231E-2,-2.504821E-2,1.1615294E1,-7.3321536E-3,1.6E1,1.2524762E1,-6.5345765E-4,-2.464986E-3,2.66064E1,1.196E1,6.1368054E2,5.5126874E-3,-2.4053256E-3,-2.158165E-4,2.9318334E-4,1.5294484E-3,1.6064883E-3,2.8315985E-3],"split_indices":[18,14,0,0,3,0,0,3,0,2,18,0,0,5,0,0,18,0,0,11,4,17,0,0,0,0,0,0,0],"split_type":[0,0,0,0,0,0,0,0,0,0,0,0,0,0,0,0,0,0,0,0,0,0,0,0,0,0,0,0,0],"sum_hessian":[8E1,7.6E1,4E0,9E0,6.7E1,1E0,3E0,8E0,1E0,8E0,5.9E1,7E0,1E0,4E0,4E0,3E1,2.9E1,1E0,3E0,2.1E1,9E0,2.3E1,6E0,2E0,1.9E1,3E0,6E0,1.1E1,1.2E1],"tree_param":{"num_deleted":"0","num_feature":"20","num_nodes":"29","size_leaf_vector":"1"}},{"base_weights":[2.8381466E-3,-9.980994E-3,1.9968529E-1,-1.9118214E-2,-5.1459752E-5,3.599553E-2,6.9628954E-3,-8.154592E-2,1.3956204E-2,-9.383786E-3,-3.6575557E-3,7.8253745E-4,3.4475822E-2,-3.4007481E-3,2.5054613E-2,2.3193147E-3,5.5552362E-3,-8.112357E-4,9.1895106E-4,3.52335E-4,2.8656197E-3],"categories":[],"categories_nodes":[],"categories_segments":[],"categories_sizes":[],"default_left":[0,0,0,0,0,0,0,0,0,0,0,0,0,0,0,0,0,0,0,0,0],"id":31,"left_children":[1,3,5,-1,7,-1,-1,9,11,-1,-1,13,15,17,19,-1,-1,-1,-1,-1,-1],"loss_changes":[2.0638938E-1,1.3853186E-1,7.915735E-2,0E0,8.561255E-2,0E0,0E0,2.6483238E-3,1.7273411E-2,0E0,0E0,4.1466854E-3,4.6565607E-3,2.1507617E-3,3.6431383E-4,0E0,0E0,0E0,0E0,0E0,0E0],"parents":[2147483647,0,0,1,1,2,2,4,4,7,7,8,8,11,11,12,12,13,13,14,14],"right_children":[2,4,6,-1,8,-1,-1,10,12,-1,-1,14,16,18,20,-1,-1,-1,-1,-1,-1],"split_conditions":[1.3446667E1,6.47037E2,3E0,-1.9118214E-2,1.1615294E1,3.599553E-2,6.9628954E-3,9.988889E0,1.23700075E1,-9.383786E-3,-3.6575557E-3,5.1080475E1,1.2524762E1,1.6E1,1E1,2.3193147E-3,5.5552362E-3,-8.112357E-4,9.1895106E-4,3.52335E-4,2.8656197E-3],"split_indices":[18,14,0,0,3,0,0,3,18,0,0,7,18,0,1,0,0,0,0,0,0],"split_type":[0,0,0,0,0,0,0,0,0,0,0,0,0,0,0,0,0,0,0,0,0],"sum_hessian":[8E1,7.6E1,4E0,3E0,7.3E1,1E0,3E0,1E1,6.3E1,7E0,3E0,3.9E1,2.4E1,3.4E1,5E0,1.7E1,7E0,2.5E1,9E0,1E0,4E0],"tree_param":{"num_deleted":"0","num_feature":"20","num_nodes":"21","size_leaf_vector":"1"}},{"base_weights":[2.8260197E-3,-9.255E-3,1.8830852E-1,-1.768434E-1,-7.110029E-5,3.419576E-2,6.440687E-2,-2.283988E-2,-8.352534E-3,-7.457673E-2,1.2735665E-2,8.369923E-3,3.0076345E-3,-8.562672E-3,-3.383255E-3,7.8754424E-4,3.1343233E-2,-3.0574526E-3,2.3085436E-2,2.1002663E-3,5.0691604E-3,-7.331995E-4,8.3621027E-4,3.3473969E-4,2.6363563E-3],"categories":[],"categories_nodes":[],"categories_segments":[],"categories_sizes":[],"default_left":[0,0,0,0,0,0,0,0,0,0,0,0,0,0,0,0,0,0,0,0,0,0,0,0,0],"id":32,"left_children":[1,3,5,7,9,-1,11,-1,-1,13,15,-1,-1,-1,-1,17,19,21,23,-1,-1,-1,-1,-1,-1],"loss_changes":[1.8324903E-1,1.1849929E-1,7.316245E-2,1.6711652E-4,7.155881E-2,0E0,1.3189949E-4,0E0,0E0,2.055481E-3,1.4204143E-2,0E0,0E0,0E0,0E0,3.4999957E-3,3.937172E-3,1.769779E-3,2.9997365E-4,0E0,0E0,0E0,0E0,0E0,0E0],"parents":[2147483647,0,0,1,1,2,2,3,3,4,4,6,6,9,9,10,10,15,15,16,16,17,17,18,18],"right_children":[2,4,6,8,10,-1,12,-1,-1,14,16,-1,-1,-1,-1,18,20,22,24,-1,-1,-1,-1,-1,-1],"split_conditions":[1.3446667E1,6.47037E2,3E0,3.5E1,1.1615294E1,3.419576E-2,1.3E1,-2.283988E-2,-8.352534E-3,9.988889E0,1.23700075E1,8.369923E-3,3.0076345E-3,-8.562672E-3,-3.383255E-3,5.1080475E1,1.2524762E1,1.6E1,1E1,2.1002663E-3,5.0691604E-3,-7.331995E-4,8.3621027E-4,3.3473969E-4,2.6363563E-3],"split_indices":[18,14,0,1,3,0,0,0,0,3,18,0,0,0,0,7,18,0,1,0,0,0,0,0,0],"split_type":[0,0,0,0,0,0,0,0,0,0,0,0,0,0,0,0,0,0,0,0,0,0,0,0,0],"sum_hessian":[8E1,7.6E1,4E0,3E0,7.3E1,1E0,3E0,1E0,2E0,1E1,6.3E1,1E0,2E0,7E0,3E0,3.9E1,2.4E1,3.4E1,5E0,1.7E1,7E0,2.5E1,9E0,1E0,4E0],"tree_param":{"num_deleted":"0","num_feature":"20","num_nodes":"25","size_leaf_vector":"1"}},{"base_weights":[2.700111E-3,-8.756514E-3,1.7859212E-1,-1.6695738E-1,-8.678436E-5,3.2485962E-2,6.0810328E-2,-2.1697903E-2,-7.7957152E-3,-6.820471E-2,1.16223395E-2,7.951403E-3,2.8071085E-3,-8.141477E-3,-3.606968E-3,4.6610096E-3,3.857363E-2,-6.581354E-3,1.1333321E-2,2.6378103E-3,5.281086E-3,-1.2563515E-3,-5.4472144E-5,6.8397046E-4,1.694325E-3],"categories":[],"categories_nodes":[],"categories_segments":[],"categories_sizes":[],"default_left":[0,0,0,0,0,0,0,0,0,0,0,0,0,0,0,0,0,0,0,0,0,0,0,0,0],"id":33,"left_children":[1,3,5,7,9,-1,11,-1,-1,13,15,-1,-1,-1,-1,17,19,21,23,-1,-1,-1,-1,-1,-1],"loss_changes":[1.6478927E-1,1.0559553E-1,6.638341E-2,8.926913E-4,5.9815187E-2,0E0,2.1733437E-4,0E0,0E0,1.7329603E-3,1.1827684E-2,0E0,0E0,0E0,0E0,3.975241E-3,8.641463E-4,7.1539864E-4,7.160064E-4,0E0,0E0,0E0,0E0,0E0,0E0],"parents":[2147483647,0,0,1,1,2,2,3,3,4,4,6,6,9,9,10,10,15,15,16,16,17,17,18,18],"right_children":[2,4,6,8,10,-1,12,-1,-1,14,16,-1,-1,-1,-1,18,20,22,24,-1,-1,-1,-1,-1,-1],"split_conditions":[1.3446667E1,6.47037E2,3E0,3.5E1,1.1615294E1,3.2485962E-2,1.3E1,-2.1697903E-2,-7.7957152E-3,9.944375E0,1.241E1,7.951403E-3,2.8071085E-3,-8.141477E-3,-3.606968E-3,1.1825652E1,1.301E1,6.5033527E2,1.23700075E1,2.6378103E-3,5.281086E-3,-1.2563515E-3,-5.4472144E-5,6.8397046E-4,1.694325E-3],"split_indices":[18,14,0,1,3,0,0,0,0,3,3,0,0,0,0,3,3,12,18,0,0,0,0,0,0],"split_type":[0,0,0,0,0,0,0,0,0,0,0,0,0,0,0,0,0,0,0,0,0,0,0,0,0],"sum_hessian":[8E1,7.6E1,4E0,3E0,7.3E1,1E0,3E0,1E0,2E0,1E1,6.3E1,1E0,2E0,6E0,4E0,5.1E1,1.2E1,1.9E1,3.2E1,8E0,4E0,9E0,1E1,1.9E1,1.3E1],"tree_param":{"num_deleted":"0","num_feature":"20","num_nodes":"25","size_leaf_vector":"1"}},{"base_weights":[2.5656666E-3,-8.299877E-3,1.693819E-1,-1.5763521E-1,-1.1553636E-4,3.0861665E-2,5.741906E-2,-2.0613004E-2,-7.276026E-3,-6.2452316E-2,1.0600403E-2,7.553816E-3,2.6199976E-3,-6.9186958E-3,-2.1430969E-3,4.215332E-3,3.532527E-2,-5.9889792E-3,1.0272026E-2,2.4033336E-3,4.85857E-3,-2.479613E-4,-1.6021157E-3,8.5292023E-4,2.4857202E-3],"categories":[],"categories_nodes":[],"categories_segments":[],"categories_sizes":[],"default_left":[0,0,0,0,0,0,0,0,0,0,0,0,0,0,0,0,0,0,0,0,0,0,0,0,0],"id":34,"left_children":[1,3,5,7,9,-1,11,-1,-1,13,15,-1,-1,-1,-1,17,19,21,23,-1,-1,-1,-1,-1,-1],"loss_changes":[1.4822231E-1,9.4092056E-2,6.02251E-2,1.4659017E-3,5.009381E-2,0E0,2.8354768E-4,0E0,0E0,1.5561581E-3,9.954775E-3,0E0,0E0,0E0,0E0,3.275347E-3,7.7889115E-4,6.644055E-4,6.268278E-4,0E0,0E0,0E0,0E0,0E0,0E0],"parents":[2147483647,0,0,1,1,2,2,3,3,4,4,6,6,9,9,10,10,15,15,16,16,17,17,18,18],"right_children":[2,4,6,8,10,-1,12,-1,-1,14,16,-1,-1,-1,-1,18,20,22,24,-1,-1,-1,-1,-1,-1],"split_conditions":[1.3446667E1,6.47037E2,3E0,3.5E1,1.1615294E1,3.0861665E-2,1.3E1,-2.0613004E-2,-7.276026E-3,1.001E1,1.241E1,7.553816E-3,2.6199976E-3,-6.9186958E-3,-2.1430969E-3,1.1825652E1,1.301E1,6.5053937E2,5.2102E1,2.4033336E-3,4.85857E-3,-2.479613E-4,-1.6021157E-3,8.5292023E-4,2.4857202E-3],"split_indices":[18,14,0,1,3,0,0,0,0,3,3,0,0,0,0,3,3,14,6,0,0,0,0,0,0],"split_type":[0,0,0,0,0,0,0,0,0,0,0,0,0,0,0,0,0,0,0,0,0,0,0,0,0],"sum_hessian":[8E1,7.6E1,4E0,3E0,7.3E1,1E0,3E0,1E0,2E0,1E1,6.3E1,1E0,2E0,8E0,2E0,5.1E1,1.2E1,1.9E1,3.2E1,8E0,4E0,1.5E1,4E0,3E1,2E0],"tree_param":{"num_deleted":"0","num_feature":"20","num_nodes":"25","size_leaf_vector":"1"}},{"base_weights":[2.4676854E-3,-7.835995E-3,1.6065082E-1,-1.4884424E-1,-1.08035834E-4,2.9318571E-2,5.4220676E-2,-1.9582367E-2,-6.7909877E-3,-5.7030763E-2,9.677246E-3,7.1761133E-3,2.4453483E-3,-6.850583E-3,-2.9559517E-3,3.9770603E-4,2.413742E-2,-2.7792521E-3,1.8863678E-2,1.6059399E-2,3.929579E-3,-1.952879E-5,-1.824398E-3,2.4118424E-4,2.1671678E-3,6.000837E-4,1.6941667E-3],"categories":[],"categories_nodes":[],"categories_segments":[],"categories_sizes":[],"default_left":[0,0,0,0,0,0,0,0,0,0,0,0,0,0,0,0,0,0,0,0,0,0,0,0,0,0,0],"id":35,"left_children":[1,3,5,7,9,-1,11,-1,-1,13,15,-1,-1,-1,-1,17,19,21,23,25,-1,-1,-1,-1,-1,-1,-1],"loss_changes":[1.3327822E-1,8.389128E-2,5.4631814E-2,1.9106343E-3,4.1770265E-2,0E0,3.337115E-4,0E0,0E0,1.4425851E-3,8.578161E-3,0E0,0E0,0E0,0E0,2.399052E-3,2.4301764E-3,1.3950479E-3,2.2491207E-4,5.8074016E-5,0E0,0E0,0E0,0E0,0E0,0E0,0E0],"parents":[2147483647,0,0,1,1,2,2,3,3,4,4,6,6,9,9,10,10,15,15,16,16,17,17,18,18,19,19],"right_children":[2,4,6,8,10,-1,12,-1,-1,14,16,-1,-1,-1,-1,18,20,22,24,26,-1,-1,-1,-1,-1,-1,-1],"split_conditions":[1.3446667E1,6.47037E2,3E0,3.5E1,1.1615294E1,2.9318571E-2,1.3E1,-1.9582367E-2,-6.7909877E-3,9.944375E0,1.23700075E1,7.1761133E-3,2.4453483E-3,-6.850583E-3,-2.9559517E-3,5.1080475E1,1.2524762E1,1.23E1,1E1,6.4795105E2,3.929579E-3,-1.952879E-5,-1.824398E-3,2.4118424E-4,2.1671678E-3,6.000837E-4,1.6941667E-3],"split_indices":[18,14,0,1,3,0,0,0,0,3,18,0,0,0,0,7,18,5,1,14,0,0,0,0,0,0,0],"split_type":[0,0,0,0,0,0,0,0,0,0,0,0,0,0,0,0,0,0,0,0,0,0,0,0,0,0,0],"sum_hessian":[8E1,7.6E1,4E0,3E0,7.3E1,1E0,3E0,1E0,2E0,1E1,6.3E1,1E0,2E0,6E0,4E0,3.9E1,2.4E1,3.4E1,5E0,1.7E1,7E0,3E1,4E0,1E0,4E0,2E0,1.5E1],"tree_param":{"num_deleted":"0","num_feature":"20","num_nodes":"27","size_leaf_vector":"1"}},{"base_weights":[2.3387745E-3,-7.4341265E-3,1.523737E-1,-1.40553E-1,-1.380508E-4,2.785263E-2,5.1203966E-2,-1.860323E-2,-6.338247E-3,-5.2219216E-2,8.815557E-3,6.8172934E-3,2.2823333E-3,-6.2634195E-3,-2.7194405E-3,-1.4840856E-3,1.9827565E-2,6.24001E-4,-2.3475648E-3,1.5069573E-2,4.1555217E-3,-6.429911E-4,7.226271E-4,9.384537E-4,2.0470032E-3],"categories":[],"categories_nodes":[],"categories_segments":[],"categories_sizes":[],"default_left":[0,0,0,0,0,0,0,0,0,0,0,0,0,0,0,0,0,0,0,0,0,0,0,0,0],"id":36,"left_children":[1,3,5,7,9,-1,11,-1,-1,13,15,-1,-1,-1,-1,17,19,21,-1,23,-1,-1,-1,-1,-1],"loss_changes":[1.1990116E-1,7.476649E-2,4.955247E-2,2.2474602E-3,3.49676E-2,0E0,3.7042703E-4,0E0,0E0,1.1636633E-3,7.28829E-3,0E0,0E0,0E0,0E0,1.5908928E-3,2.5785603E-3,1.5367628E-3,0E0,6.368477E-4,0E0,0E0,0E0,0E0,0E0],"parents":[2147483647,0,0,1,1,2,2,3,3,4,4,6,6,9,9,10,10,15,15,16,16,17,17,19,19],"right_children":[2,4,6,8,10,-1,12,-1,-1,14,16,-1,-1,-1,-1,18,20,22,-1,24,-1,-1,-1,-1,-1],"split_conditions":[1.3446667E1,6.47037E2,3E0,3.5E1,1.1615294E1,2.785263E-2,1.3E1,-1.860323E-2,-6.338247E-3,9.944375E0,1.2193359E1,6.8172934E-3,2.2823333E-3,-6.2634195E-3,-2.7194405E-3,1.218E1,1.301E1,1.1796785E1,-2.3475648E-3,2.379E1,4.1555217E-3,-6.429911E-4,7.226271E-4,9.384537E-4,2.0470032E-3],"split_indices":[18,14,0,1,3,0,0,0,0,3,18,0,0,0,0,5,3,19,0,11,0,0,0,0,0],"split_type":[0,0,0,0,0,0,0,0,0,0,0,0,0,0,0,0,0,0,0,0,0,0,0,0,0],"sum_hessian":[8E1,7.6E1,4E0,3E0,7.3E1,1E0,3E0,1E0,2E0,1E1,6.3E1,1E0,2E0,6E0,4E0,3.3E1,3E1,3.1E1,2E0,2.6E1,4E0,1.5E1,1.6E1,1.4E1,1.2E1],"tree_param":{"num_deleted":"0","num_feature":"20","num_nodes":"25","size_leaf_vector":"1"}},{"base_weights":[2.2024931E-3,-7.067953E-3,1.4452687E-1,-1.327331E-1,-1.7972894E-4,2.645998E-2,4.835868E-2,-1.7673064E-2,-5.9157056E-3,-4.7995135E-2,8.041352E-3,6.4764502E-3,2.1301906E-3,-5.7265284E-3,-2.54179E-3,2.3937225E-4,2.0202866E-2,3.23034E-3,-1.7247835E-2,3.6335308E-3,1.4352989E-2,-2.2910725E-4,1.1676108E-3,-2.3695182E-3,7.49445E-4,1.1386647E-3,2.3371696E-3],"categories":[],"categories_nodes":[],"categories_segments":[],"categories_sizes":[],"default_left":[0,0,0,0,0,0,0,0,0,0,0,0,0,0,0,0,0,0,0,0,0,0,0,0,0,0,0],"id":37,"left_children":[1,3,5,7,9,-1,11,-1,-1,13,15,-1,-1,-1,-1,17,19,21,23,-1,25,-1,-1,-1,-1,-1,-1],"loss_changes":[1.0789375E-1,6.662809E-2,4.4940285E-2,2.4937987E-3,2.9474927E-2,0E0,3.959462E-4,0E0,0E0,8.4667467E-4,6.0677323E-3,0E0,0E0,0E0,0E0,2.1478636E-3,1.8377993E-3,1.6588906E-3,1.1347149E-3,0E0,2.6892638E-4,0E0,0E0,0E0,0E0,0E0,0E0],"parents":[2147483647,0,0,1,1,2,2,3,3,4,4,6,6,9,9,10,10,15,15,16,16,17,17,18,18,20,20],"right_children":[2,4,6,8,10,-1,12,-1,-1,14,16,-1,-1,-1,-1,18,20,22,24,-1,26,-1,-1,-1,-1,-1,-1],"split_conditions":[1.3446667E1,6.47037E2,3E0,3.5E1,1.1673249E1,2.645998E-2,1.3E1,-1.7673064E-2,-5.9157056E-3,9.944375E0,1.23700075E1,6.4764502E-3,2.1301906E-3,-5.7265284E-3,-2.54179E-3,1.23E1,3.59935E1,1.18365E1,4.5E1,3.6335308E-3,2.3457083E2,-2.2910725E-4,1.1676108E-3,-2.3695182E-3,7.49445E-4,1.1386647E-3,2.3371696E-3],"split_indices":[18,14,0,1,19,0,0,0,0,3,18,0,0,0,0,5,8,4,1,0,9,0,0,0,0,0,0],"split_type":[0,0,0,0,0,0,0,0,0,0,0,0,0,0,0,0,0,0,0,0,0,0,0,0,0,0,0],"sum_hessian":[8E1,7.6E1,4E0,3E0,7.3E1,1E0,3E0,1E0,2E0,1E1,6.3E1,1E0,2E0,6E0,4E0,3.9E1,2.4E1,3.4E1,5E0,5E0,1.9E1,2.1E1,1.3E1,4E0,1E0,1.6E1,3E0],"tree_param":{"num_deleted":"0","num_feature":"20","num_nodes":"27","size_leaf_vector":"1"}},{"base_weights":[2.1012272E-3,-6.6914E-3,1.3708743E-1,-1.2535691E-1,-1.8662376E-4,2.5136996E-2,4.5674324E-2,-1.678939E-2,-5.521329E-3,-4.394722E-2,7.3376447E-3,6.15263E-3,1.9881567E-3,-4.8650107E-3,-1.5189488E-3,3.3930345E-3,2.8299237E-2,-2.135531E-3,9.641647E-3,5.725861E-4,3.0171182E-3,6.273764E-5,-2.0251274E-3,1.5292884E-3,6.754725E-4],"categories":[],"categories_nodes":[],"categories_segments":[],"categories_sizes":[],"default_left":[0,0,0,0,0,0,0,0,0,0,0,0,0,0,0,0,0,0,0,0,0,0,0,0,0],"id":38,"left_children":[1,3,5,7,9,-1,11,-1,-1,13,15,-1,-1,-1,-1,17,19,21,23,-1,-1,-1,-1,-1,-1],"loss_changes":[9.705487E-2,5.9412334E-2,4.0753454E-2,2.6648194E-3,2.4688188E-2,0E0,4.122248E-4,0E0,0E0,7.487163E-4,5.19584E-3,0E0,0E0,0E0,0E0,1.9206128E-3,2.4980493E-4,1.5142688E-3,3.2088254E-4,0E0,0E0,0E0,0E0,0E0,0E0],"parents":[2147483647,0,0,1,1,2,2,3,3,4,4,6,6,9,9,10,10,15,15,16,16,17,17,18,18],"right_children":[2,4,6,8,10,-1,12,-1,-1,14,16,-1,-1,-1,-1,18,20,22,24,-1,-1,-1,-1,-1,-1],"split_conditions":[1.3446667E1,6.47037E2,3E0,3.5E1,1.1673249E1,2.5136996E-2,1.3E1,-1.678939E-2,-5.521329E-3,1.001E1,1.2476666E1,6.15263E-3,1.9881567E-3,-4.8650107E-3,-1.5189488E-3,1.2078E1,5E0,1.196E1,1E0,5.725861E-4,3.0171182E-3,6.273764E-5,-2.0251274E-3,1.5292884E-3,6.754725E-4],"split_indices":[18,14,0,1,19,0,0,0,0,3,3,0,0,0,0,18,1,5,0,0,0,0,0,0,0],"split_type":[0,0,0,0,0,0,0,0,0,0,0,0,0,0,0,0,0,0,0,0,0,0,0,0,0],"sum_hessian":[8E1,7.6E1,4E0,3E0,7.3E1,1E0,3E0,1E0,2E0,1E1,6.3E1,1E0,2E0,8E0,2E0,5.4E1,9E0,2.9E1,2.5E1,1E0,8E0,2.6E1,3E0,7E0,1.8E1],"tree_param":{"num_deleted":"0","num_feature":"20","num_nodes":"25","size_leaf_vector":"1"}},{"base_weights":[1.9949218E-3,-6.3452288E-3,1.3003425E-1,-1.1839867E-1,-2.025398E-4,2.3880148E-2,4.314208E-2,-1.5949918E-2,-5.153211E-3,-4.0133044E-2,6.66368E-3,5.8450224E-3,1.855596E-3,-4.818685E-3,-2.0831109E-3,3.0580868E-3,2.5828075E-2,-4.2027473E-3,7.0069367E-3,1.5621503E-2,3.2910348E-3,-9.572697E-4,1.0610927E-4,5.220086E-4,1.7041396E-3,1.9355536E-3,5.435626E-4],"categories":[],"categories_nodes":[],"categories_segments":[],"categories_sizes":[],"default_left":[0,0,0,0,0,0,0,0,0,0,0,0,0,0,0,0,0,0,0,0,0,0,0,0,0,0,0],"id":39,"left_children":[1,3,5,7,9,-1,11,-1,-1,13,15,-1,-1,-1,-1,17,19,21,23,25,-1,-1,-1,-1,-1,-1,-1],"loss_changes":[8.7322354E-2,5.2975845E-2,3.695271E-2,2.7736686E-3,2.0556133E-2,0E0,4.208712E-4,0E0,0E0,7.0621073E-4,4.3433523E-3,0E0,0E0,0E0,0E0,1.6064051E-3,2.087485E-4,5.754886E-4,5.5652554E-4,1.2299686E-4,0E0,0E0,0E0,0E0,0E0,0E0,0E0],"parents":[2147483647,0,0,1,1,2,2,3,3,4,4,6,6,9,9,10,10,15,15,16,16,17,17,18,18,19,19],"right_children":[2,4,6,8,10,-1,12,-1,-1,14,16,-1,-1,-1,-1,18,20,22,24,26,-1,-1,-1,-1,-1,-1,-1],"split_conditions":[1.3446667E1,6.47037E2,3E0,3.5E1,1.1673249E1,2.3880148E-2,1.3E1,-1.5949918E-2,-5.153211E-3,9.944375E0,1.2476666E1,5.8450224E-3,1.855596E-3,-4.818685E-3,-2.0831109E-3,1.1825652E1,1.301E1,6.50275E2,5.1315716E1,1.254E1,3.2910348E-3,-9.572697E-4,1.0610927E-4,5.220086E-4,1.7041396E-3,1.9355536E-3,5.435626E-4],"split_indices":[18,14,0,1,19,0,0,0,0,3,3,0,0,0,0,3,3,12,8,4,0,0,0,0,0,0,0],"split_type":[0,0,0,0,0,0,0,0,0,0,0,0,0,0,0,0,0,0,0,0,0,0,0,0,0,0,0],"sum_hessian":[8E1,7.6E1,4E0,3E0,7.3E1,1E0,3E0,1E0,2E0,1E1,6.3E1,1E0,2E0,6E0,4E0,5.4E1,9E0,1.9E1,3.5E1,5E0,4E0,9E0,1E1,3.1E1,4E0,3E0,2E0],"tree_param":{"num_deleted":"0","num_feature":"20","num_nodes":"27","size_leaf_vector":"1"}},{"base_weights":[1.9279645E-3,-5.9814206E-3,1.233469E-1,-1.1183429E-1,-1.7881393E-4,2.2686148E-2,4.0752888E-2,-1.5152407E-2,-4.8096343E-3,-3.6747154E-2,6.109163E-3,5.5527687E-3,1.7318726E-3,-4.405635E-2,-1.9164849E-3,-6.268024E-5,1.5739746E-2,-1.2666226E-3,-4.7176997E-3,2.521079E-3,-1.5124162E-2,2.8902213E-3,1.1004019E-2,-4.0381114E-4,7.0861634E-4,-2.0757485E-3,6.521225E-4,-9.608269E-5,1.1684317E-3],"categories":[],"categories_nodes":[],"categories_segments":[],"categories_sizes":[],"default_left":[0,0,0,0,0,0,0,0,0,0,0,0,0,0,0,0,0,0,0,0,0,0,0,0,0,0,0,0,0],"id":40,"left_children":[1,3,5,7,9,-1,11,-1,-1,13,15,-1,-1,17,-1,19,21,-1,-1,23,25,-1,27,-1,-1,-1,-1,-1,-1],"loss_changes":[7.852607E-2,4.7275137E-2,3.350316E-2,2.831228E-3,1.724012E-2,0E0,4.2327167E-4,0E0,0E0,5.6930445E-4,3.8050467E-3,0E0,0E0,8.814875E-5,0E0,1.5947388E-3,1.2403061E-3,0E0,0E0,1.0766289E-3,8.6697703E-4,0E0,1.7401995E-4,0E0,0E0,0E0,0E0,0E0,0E0],"parents":[2147483647,0,0,1,1,2,2,3,3,4,4,6,6,9,9,10,10,13,13,15,15,16,16,19,19,20,20,22,22],"right_children":[2,4,6,8,10,-1,12,-1,-1,14,16,-1,-1,18,-1,20,22,-1,-1,24,26,-1,28,-1,-1,-1,-1,-1,-1],"split_conditions":[1.3446667E1,6.47037E2,3E0,3.5E1,1.1673249E1,2.2686148E-2,1.3E1,-1.5152407E-2,-4.8096343E-3,9.944375E0,1.23700075E1,5.5527687E-3,1.7318726E-3,5E0,-1.9164849E-3,1.23E1,3.59935E1,-1.2666226E-3,-4.7176997E-3,1.1796785E1,4.5E1,2.8902213E-3,1.239E1,-4.0381114E-4,7.0861634E-4,-2.0757485E-3,6.521225E-4,-9.608269E-5,1.1684317E-3],"split_indices":[18,14,0,1,19,0,0,0,0,3,18,0,0,1,0,5,8,0,0,19,1,0,18,0,0,0,0,0,0],"split_type":[0,0,0,0,0,0,0,0,0,0,0,0,0,0,0,0,0,0,0,0,0,0,0,0,0,0,0,0,0],"sum_hessian":[8E1,7.6E1,4E0,3E0,7.3E1,1E0,3E0,1E0,2E0,1E1,6.3E1,1E0,2E0,6E0,4E0,3.9E1,2.4E1,1E0,5E0,3.4E1,5E0,5E0,1.9E1,1.4E1,2E1,4E0,1E0,1E0,1.8E1],"tree_param":{"num_deleted":"0","num_feature":"20","num_nodes":"29","size_leaf_vector":"1"}},{"base_weights":[1.7962868E-3,-5.7082116E-3,1.170063E-1,-1.056416E-1,-2.2926847E-4,2.1551847E-2,3.849864E-2,-1.4394808E-2,-4.489009E-3,-3.3790503E-2,5.542651E-3,5.2751065E-3,1.6164145E-3,-4.0505547E-2,-1.7631341E-3,2.4347652E-3,2.2081757E-2,-1.2032986E-3,-4.3245475E-3,-1.7033239E-3,7.468605E-3,4.5838355E-4,2.3516656E-3,2.4295676E-5,-1.9949595E-3,5.738085E-4,1.5119314E-3],"categories":[],"categories_nodes":[],"categories_segments":[],"categories_sizes":[],"default_left":[0,0,0,0,0,0,0,0,0,0,0,0,0,0,0,0,0,0,0,0,0,0,0,0,0,0,0],"id":41,"left_children":[1,3,5,7,9,-1,11,-1,-1,13,15,-1,-1,17,-1,19,21,-1,-1,23,25,-1,-1,-1,-1,-1,-1],"loss_changes":[7.069997E-2,4.213554E-2,3.0372635E-2,2.8468668E-3,1.4522032E-2,0E0,4.2060716E-4,0E0,0E0,4.794374E-4,3.2359418E-3,0E0,0E0,2.5717542E-5,0E0,1.1583975E-3,1.4328072E-4,0E0,0E0,1.1057301E-3,2.4423678E-4,0E0,0E0,0E0,0E0,0E0,0E0],"parents":[2147483647,0,0,1,1,2,2,3,3,4,4,6,6,9,9,10,10,13,13,15,15,16,16,19,19,20,20],"right_children":[2,4,6,8,10,-1,12,-1,-1,14,16,-1,-1,18,-1,20,22,-1,-1,24,26,-1,-1,-1,-1,-1,-1],"split_conditions":[1.3446667E1,6.47037E2,3E0,3.5E1,1.1673249E1,2.1551847E-2,1.3E1,-1.4394808E-2,-4.489009E-3,9.944375E0,1.2476666E1,5.2751065E-3,1.6164145E-3,5E0,-1.7631341E-3,1.2151334E1,5E0,-1.2032986E-3,-4.3245475E-3,1.2067E1,4.9837E1,4.5838355E-4,2.3516656E-3,2.4295676E-5,-1.9949595E-3,5.738085E-4,1.5119314E-3],"split_indices":[18,14,0,1,19,0,0,0,0,3,3,0,0,1,0,18,1,0,0,4,7,0,0,0,0,0,0],"split_type":[0,0,0,0,0,0,0,0,0,0,0,0,0,0,0,0,0,0,0,0,0,0,0,0,0,0,0],"sum_hessian":[8E1,7.6E1,4E0,3E0,7.3E1,1E0,3E0,1E0,2E0,1E1,6.3E1,1E0,2E0,6E0,4E0,5.4E1,9E0,1E0,5E0,3E1,2.4E1,1E0,8E0,2.8E1,2E0,2.1E1,3E0],"tree_param":{"num_deleted":"0","num_feature":"20","num_nodes":"27","size_leaf_vector":"1"}},{"base_weights":[1.6808922E-3,-5.4392135E-3,1.1099434E-1,-9.979844E-2,-2.6521168E-4,2.0474244E-2,3.6371708E-2,-1.367507E-2,-4.189746E-3,-3.1074004E-2,5.0341934E-3,5.011368E-3,1.5086492E-3,-3.4534454E-3,-1.0334651E-3,-2.0089149E-4,1.3208961E-2,2.0907538E-3,-1.353534E-2,2.4829865E-3,9.062243E-3,-1.9141544E-4,8.234842E-4,-1.8418123E-3,5.439282E-4,7.070037E-4,1.5263557E-3],"categories":[],"categories_nodes":[],"categories_segments":[],"categories_sizes":[],"default_left":[0,0,0,0,0,0,0,0,0,0,0,0,0,0,0,0,0,0,0,0,0,0,0,0,0,0,0],"id":42,"left_children":[1,3,5,7,9,-1,11,-1,-1,13,15,-1,-1,-1,-1,17,19,21,23,-1,25,-1,-1,-1,-1,-1,-1],"loss_changes":[6.36479E-2,3.756607E-2,2.753181E-2,2.8287843E-3,1.2238285E-2,0E0,4.1396357E-4,0E0,0E0,4.3254066E-4,2.7415722E-3,0E0,0E0,0E0,0E0,1.2506122E-3,9.79701E-4,8.769905E-4,6.5607496E-4,0E0,1.3917207E-4,0E0,0E0,0E0,0E0,0E0,0E0],"parents":[2147483647,0,0,1,1,2,2,3,3,4,4,6,6,9,9,10,10,15,15,16,16,17,17,18,18,20,20],"right_children":[2,4,6,8,10,-1,12,-1,-1,14,16,-1,-1,-1,-1,18,20,22,24,-1,26,-1,-1,-1,-1,-1,-1],"split_conditions":[1.3446667E1,6.47037E2,3E0,3.5E1,1.1673249E1,2.0474244E-2,1.3E1,-1.367507E-2,-4.189746E-3,1.001E1,1.23700075E1,5.011368E-3,1.5086492E-3,-3.4534454E-3,-1.0334651E-3,1.23E1,3.59935E1,1.18365E1,4.5E1,2.4829865E-3,2.3457083E2,-1.9141544E-4,8.234842E-4,-1.8418123E-3,5.439282E-4,7.070037E-4,1.5263557E-3],"split_indices":[18,14,0,1,19,0,0,0,0,3,18,0,0,0,0,5,8,4,1,0,9,0,0,0,0,0,0],"split_type":[0,0,0,0,0,0,0,0,0,0,0,0,0,0,0,0,0,0,0,0,0,0,0,0,0,0,0],"sum_hessian":[8E1,7.6E1,4E0,3E0,7.3E1,1E0,3E0,1E0,2E0,1E1,6.3E1,1E0,2E0,8E0,2E0,3.9E1,2.4E1,3.4E1,5E0,5E0,1.9E1,2.1E1,1.3E1,4E0,1E0,1.6E1,3E0],"tree_param":{"num_deleted":"0","num_feature":"20","num_nodes":"27","size_leaf_vector":"1"}},{"base_weights":[1.6202574E-3,-5.1328237E-3,1.05293654E-1,-9.428501E-2,-2.4442415E-4,1.9450521E-2,3.4364462E-2,-1.2991333E-2,-3.910446E-3,-2.8374584E-2,4.5942664E-3,4.76079E-3,1.4080683E-3,-3.4284454E-2,-1.442585E-3,1.971193E-3,1.8561745E-2,-9.70459E-4,-3.6763668E-3,-1.1525435E-3,6.7091854E-3,1.08555155E-2,2.409687E-3,4.0590763E-5,-1.739184E-3,2.7920408E-4,1.0372509E-3,1.2895203E-3,3.285408E-5],"categories":[],"categories_nodes":[],"categories_segments":[],"categories_sizes":[],"default_left":[0,0,0,0,0,0,0,0,0,0,0,0,0,0,0,0,0,0,0,0,0,0,0,0,0,0,0,0,0],"id":43,"left_children":[1,3,5,7,9,-1,11,-1,-1,13,15,-1,-1,17,-1,19,21,-1,-1,23,25,27,-1,-1,-1,-1,-1,-1,-1],"loss_changes":[5.724976E-2,3.353444E-2,2.4954457E-2,2.7837716E-3,1.0202733E-2,0E0,4.0415628E-4,0E0,0E0,4.1220523E-4,2.3082255E-3,0E0,0E0,6.9794245E-5,0E0,8.2174595E-4,1.6496563E-4,0E0,0E0,8.675365E-4,2.8673455E-4,1.2459379E-4,0E0,0E0,0E0,0E0,0E0,0E0,0E0],"parents":[2147483647,0,0,1,1,2,2,3,3,4,4,6,6,9,9,10,10,13,13,15,15,16,16,19,19,20,20,21,21],"right_children":[2,4,6,8,10,-1,12,-1,-1,14,16,-1,-1,18,-1,20,22,-1,-1,24,26,28,-1,-1,-1,-1,-1,-1,-1],"split_conditions":[1.3446667E1,6.47037E2,3E0,3.5E1,1.1673249E1,1.9450521E-2,1.3E1,-1.2991333E-2,-3.910446E-3,9.944375E0,1.2476666E1,4.76079E-3,1.4080683E-3,5E0,-1.442585E-3,1.2193359E1,1.301E1,-9.70459E-4,-3.6763668E-3,1.23E1,6.4847284E2,4E1,2.409687E-3,4.0590763E-5,-1.739184E-3,2.7920408E-4,1.0372509E-3,1.2895203E-3,3.285408E-5],"split_indices":[18,14,0,1,19,0,0,0,0,3,3,0,0,1,0,18,3,0,0,4,12,1,0,0,0,0,0,0,0],"split_type":[0,0,0,0,0,0,0,0,0,0,0,0,0,0,0,0,0,0,0,0,0,0,0,0,0,0,0,0,0],"sum_hessian":[8E1,7.6E1,4E0,3E0,7.3E1,1E0,3E0,1E0,2E0,1E1,6.3E1,1E0,2E0,6E0,4E0,5.4E1,9E0,1E0,5E0,3.3E1,2.1E1,5E0,4E0,3.1E1,2E0,1.1E1,1E1,4E0,1E0],"tree_param":{"num_deleted":"0","num_feature":"20","num_nodes":"29","size_leaf_vector":"1"}},{"base_weights":[1.5318365E-3,-4.8748488E-3,9.988842E-2,-1.0287794E-1,-8.8972726E-4,1.8478012E-2,3.2470465E-2,-1.2341785E-2,-3.0899048E-3,-2.9328259E-2,3.9366353E-3,4.522753E-3,1.3142269E-3,-3.354168E-2,-1.3569355E-3,-5.2952184E-4,1.1103668E-2,-9.21917E-4,-3.56993E-3,-2.5635825E-3,1.1763096E-2,2.0980835E-3,7.5853346E-3,-1.6501903E-3,-7.964047E-5,2.5558473E-5,1.4013482E-3,-1.6927719E-4,8.162749E-4],"categories":[],"categories_nodes":[],"categories_segments":[],"categories_sizes":[],"default_left":[0,0,0,0,0,0,0,0,0,0,0,0,0,0,0,0,0,0,0,0,0,0,0,0,0,0,0,0,0],"id":44,"left_children":[1,3,5,7,9,-1,11,-1,-1,13,15,-1,-1,17,-1,19,21,-1,-1,23,25,-1,27,-1,-1,-1,-1,-1,-1],"loss_changes":[5.1528256E-2,2.998114E-2,2.261623E-2,6.218292E-4,1.0409555E-2,0E0,3.918917E-4,0E0,0E0,2.7524866E-4,2.0864706E-3,0E0,0E0,9.071175E-5,0E0,1.0553169E-3,7.0963264E-4,0E0,0E0,8.735914E-4,1.5179632E-4,0E0,1.2096402E-4,0E0,0E0,0E0,0E0,0E0,0E0],"parents":[2147483647,0,0,1,1,2,2,3,3,4,4,6,6,9,9,10,10,13,13,15,15,16,16,19,19,20,20,22,22],"right_children":[2,4,6,8,10,-1,12,-1,-1,14,16,-1,-1,18,-1,20,22,-1,-1,24,26,-1,28,-1,-1,-1,-1,-1,-1],"split_conditions":[1.3446667E1,6.4701556E2,3E0,3.5E1,1.16E1,1.8478012E-2,1.3E1,-1.2341785E-2,-3.0899048E-3,9.944375E0,1.23700075E1,4.522753E-3,1.3142269E-3,5E0,-1.3569355E-3,5.1080475E1,3.59935E1,-9.21917E-4,-3.56993E-3,6.4898334E2,1E1,2.0980835E-3,1.239E1,-1.6501903E-3,-7.964047E-5,2.5558473E-5,1.4013482E-3,-1.6927719E-4,8.162749E-4],"split_indices":[18,14,0,1,3,0,0,0,0,3,18,0,0,1,0,7,8,0,0,12,1,0,18,0,0,0,0,0,0],"split_type":[0,0,0,0,0,0,0,0,0,0,0,0,0,0,0,0,0,0,0,0,0,0,0,0,0,0,0,0,0],"sum_hessian":[8E1,7.6E1,4E0,2E0,7.4E1,1E0,3E0,1E0,1E0,1E1,6.4E1,1E0,2E0,7E0,3E0,4E1,2.4E1,1E0,6E0,3.5E1,5E0,5E0,1.9E1,3E0,3.2E1,1E0,4E0,1E0,1.8E1],"tree_param":{"num_deleted":"0","num_feature":"20","num_nodes":"29","size_leaf_vector":"1"}},{"base_weights":[1.4464296E-3,-4.6318476E-3,9.476261E-2,-9.773413E-2,-8.459981E-4,1.7554093E-2,3.0682802E-2,-1.172471E-2,-2.9354095E-3,-2.5683323E-2,3.824219E-3,4.2966367E-3,1.226616E-3,-3.0749202E-2,-1.2441253E-3,1.5715685E-3,1.5831375E-2,-8.7580684E-4,-3.263964E-3,6.1286415E-4,1.3641834E-2,9.3102455E-3,2.0490456E-3,-1.6863282E-4,5.8914424E-4,1.5561105E-3,3.9420128E-4,1.2539149E-3,1.9016267E-4],"categories":[],"categories_nodes":[],"categories_segments":[],"categories_sizes":[],"default_left":[0,0,0,0,0,0,0,0,0,0,0,0,0,0,0,0,0,0,0,0,0,0,0,0,0,0,0,0,0],"id":45,"left_children":[1,3,5,7,9,-1,11,-1,-1,13,15,-1,-1,17,-1,19,21,-1,-1,23,25,27,-1,-1,-1,-1,-1,-1,-1],"loss_changes":[4.6382256E-2,2.7057601E-2,2.0495206E-2,5.6121126E-4,8.797896E-3,0E0,3.778555E-4,0E0,0E0,4.2243395E-4,1.7061874E-3,0E0,0E0,4.672259E-5,0E0,6.280894E-4,1.1305371E-4,0E0,0E0,6.4103113E-4,1.3124256E-5,1.1968549E-4,0E0,0E0,0E0,0E0,0E0,0E0,0E0],"parents":[2147483647,0,0,1,1,2,2,3,3,4,4,6,6,9,9,10,10,13,13,15,15,16,16,19,19,20,20,21,21],"right_children":[2,4,6,8,10,-1,12,-1,-1,14,16,-1,-1,18,-1,20,22,-1,-1,24,26,28,-1,-1,-1,-1,-1,-1,-1],"split_conditions":[1.3446667E1,6.4701556E2,3E0,3.5E1,1.1673249E1,1.7554093E-2,1.3E1,-1.172471E-2,-2.9354095E-3,9.944375E0,1.2476666E1,4.2966367E-3,1.226616E-3,5E0,-1.2441253E-3,5.149E1,1.301E1,-8.7580684E-4,-3.263964E-3,1.23700075E1,3E1,1.254E1,2.0490456E-3,-1.6863282E-4,5.8914424E-4,1.5561105E-3,3.9420128E-4,1.2539149E-3,1.9016267E-4],"split_indices":[18,14,0,1,19,0,0,0,0,3,3,0,0,1,0,7,3,0,0,18,1,4,0,0,0,0,0,0,0],"split_type":[0,0,0,0,0,0,0,0,0,0,0,0,0,0,0,0,0,0,0,0,0,0,0,0,0,0,0,0,0],"sum_hessian":[8E1,7.6E1,4E0,2E0,7.4E1,1E0,3E0,1E0,1E0,1.1E1,6.3E1,1E0,2E0,7E0,4E0,5.4E1,9E0,1E0,6E0,5.1E1,3E0,5E0,4E0,3.6E1,1.5E1,2E0,1E0,3E0,2E0],"tree_param":{"num_deleted":"0","num_feature":"20","num_nodes":"29","size_leaf_vector":"1"}},{"base_weights":[1.411697E-3,-4.3527554E-3,8.9901924E-2,-9.28475E-2,-7.5492857E-4,1.667638E-2,2.8995514E-2,-1.1138487E-2,-2.7886392E-3,-2.3563305E-2,3.5334378E-3,4.0818215E-3,1.1448542E-3,-2.8191447E-2,-1.1445618E-3,1.4575612E-3,1.4597416E-2,-3.3225634E-3,-1.4850855E-3,5.5971515E-4,1.2765169E-2,8.619945E-3,1.8850899E-3,-1.52209E-4,5.3389074E-4,1.4523506E-3,3.7450792E-4,1.1598588E-3,1.7751059E-4],"categories":[],"categories_nodes":[],"categories_segments":[],"categories_sizes":[],"default_left":[0,0,0,0,0,0,0,0,0,0,0,0,0,0,0,0,0,0,0,0,0,0,0,0,0,0,0,0,0],"id":46,"left_children":[1,3,5,7,9,-1,11,-1,-1,13,15,-1,-1,17,-1,19,21,-1,-1,23,25,27,-1,-1,-1,-1,-1,-1,-1],"loss_changes":[4.1709237E-2,2.4445843E-2,1.85715E-2,5.064998E-4,7.41906E-3,0E0,3.6250148E-4,0E0,0E0,3.5031978E-4,1.4486406E-3,0E0,0E0,4.3843407E-5,0E0,5.5124215E-4,9.175693E-5,0E0,0E0,5.254923E-4,9.049836E-6,1.0174123E-4,0E0,0E0,0E0,0E0,0E0,0E0,0E0],"parents":[2147483647,0,0,1,1,2,2,3,3,4,4,6,6,9,9,10,10,13,13,15,15,16,16,19,19,20,20,21,21],"right_children":[2,4,6,8,10,-1,12,-1,-1,14,16,-1,-1,18,-1,20,22,-1,-1,24,26,28,-1,-1,-1,-1,-1,-1,-1],"split_conditions":[1.3446667E1,6.4701556E2,3E0,3.5E1,1.1673249E1,1.667638E-2,1.3E1,-1.1138487E-2,-2.7886392E-3,9.944375E0,1.2476666E1,4.0818215E-3,1.1448542E-3,6.478331E2,-1.1445618E-3,5.149E1,1.301E1,-3.3225634E-3,-1.4850855E-3,1.23700075E1,3E1,1.254E1,1.8850899E-3,-1.52209E-4,5.3389074E-4,1.4523506E-3,3.7450792E-4,1.1598588E-3,1.7751059E-4],"split_indices":[18,14,0,1,19,0,0,0,0,3,3,0,0,12,0,7,3,0,0,18,1,4,0,0,0,0,0,0,0],"split_type":[0,0,0,0,0,0,0,0,0,0,0,0,0,0,0,0,0,0,0,0,0,0,0,0,0,0,0,0,0],"sum_hessian":[8E1,7.6E1,4E0,2E0,7.4E1,1E0,3E0,1E0,1E0,1.1E1,6.3E1,1E0,2E0,7E0,4E0,5.4E1,9E0,4E0,3E0,5.1E1,3E0,5E0,4E0,3.6E1,1.5E1,2E0,1E0,3E0,2E0],"tree_param":{"num_deleted":"0","num_feature":"20","num_nodes":"29","size_leaf_vector":"1"}},{"base_weights":[1.3626947E-3,-4.1049984E-3,8.529262E-2,-8.820502E-2,-6.86264E-4,1.5842581E-2,2.7402878E-2,-1.0581541E-2,-2.649212E-3,-1.7031087E-2,4.398099E-3,3.8777352E-3,1.0685603E-3,-2.4993578E-2,-8.161736E-3,2.4590006E-3,1.3459873E-2,-3.056755E-3,-1.4420891E-3,-8.895636E-4,-3.4840903E-4,3.0947726E-3,-1.4029026E-3,7.980983E-3,1.7342567E-3,2.3452925E-4,1.3555209E-3,9.688949E-4,-2.7942659E-5],"categories":[],"categories_nodes":[],"categories_segments":[],"categories_sizes":[],"default_left":[0,0,0,0,0,0,0,0,0,0,0,0,0,0,0,0,0,0,0,0,0,0,0,0,0,0,0,0,0],"id":47,"left_children":[1,3,5,7,9,-1,11,-1,-1,13,15,-1,-1,17,19,21,23,-1,-1,-1,-1,25,-1,27,-1,-1,-1,-1,-1],"loss_changes":[3.7521277E-2,2.2078171E-2,1.6826987E-2,4.5709126E-4,6.3076303E-3,0E0,3.462413E-4,0E0,0E0,1.0672077E-3,9.860594E-4,0E0,0E0,8.957554E-5,3.3359975E-6,5.5706524E-4,7.4317795E-5,0E0,0E0,0E0,0E0,3.445237E-4,0E0,8.735841E-5,0E0,0E0,0E0,0E0,0E0],"parents":[2147483647,0,0,1,1,2,2,3,3,4,4,6,6,9,9,10,10,13,13,14,14,15,15,16,16,21,21,23,23],"right_children":[2,4,6,8,10,-1,12,-1,-1,14,16,-1,-1,18,20,22,24,-1,-1,-1,-1,26,-1,28,-1,-1,-1,-1,-1],"split_conditions":[1.3446667E1,6.4701556E2,3E0,3.5E1,2.884875E1,1.5842581E-2,1.3E1,-1.0581541E-2,-2.649212E-3,9.988889E0,1.2476666E1,3.8777352E-3,1.0685603E-3,6.478331E2,4.5E1,6.50925E2,1.301E1,-3.056755E-3,-1.4420891E-3,-8.895636E-4,-3.4840903E-4,5.2102E1,-1.4029026E-3,4E1,1.7342567E-3,2.3452925E-4,1.3555209E-3,9.688949E-4,-2.7942659E-5],"split_indices":[18,14,0,1,6,0,0,0,0,3,3,0,0,12,1,14,3,0,0,0,0,6,0,1,0,0,0,0,0],"split_type":[0,0,0,0,0,0,0,0,0,0,0,0,0,0,0,0,0,0,0,0,0,0,0,0,0,0,0,0,0],"sum_hessian":[8E1,7.6E1,4E0,2E0,7.4E1,1E0,3E0,1E0,1E0,1.7E1,5.7E1,1E0,2E0,8E0,9E0,4.8E1,9E0,4E0,4E0,7E0,2E0,4.7E1,1E0,5E0,4E0,4.5E1,2E0,4E0,1E0],"tree_param":{"num_deleted":"0","num_feature":"20","num_nodes":"29","size_leaf_vector":"1"}},{"base_weights":[1.2842343E-3,-3.9036863E-3,8.092137E-2,-8.3794594E-2,-6.5600075E-4,1.5050459E-2,2.589941E-2,-1.0052443E-2,-2.5167465E-3,-2.2171785E-3,2.6139058E-3,3.6838532E-3,9.973526E-4,-1.338217E-3,7.119148E-3,-1.3750792E-2,2.0688953E-4,2.1675746E-3,1.106941E-2,-1.8790246E-3,-5.807559E-4,-3.4050943E-4,3.4060478E-4,4.7288308E-4,-9.653728E-4,1.6613143E-3,6.53527E-4],"categories":[],"categories_nodes":[],"categories_segments":[],"categories_sizes":[],"default_left":[0,0,0,0,0,0,0,0,0,0,0,0,0,0,0,0,0,0,0,0,0,0,0,0,0,0,0],"id":48,"left_children":[1,3,5,7,9,-1,11,-1,-1,-1,13,-1,-1,15,17,19,21,23,25,-1,-1,-1,-1,-1,-1,-1,-1],"loss_changes":[3.378113E-2,1.9923493E-2,1.52450465E-2,4.1252002E-4,5.334549E-3,0E0,3.294507E-4,0E0,0E0,0E0,1.1846747E-3,0E0,0E0,6.932799E-4,5.823667E-4,5.0992763E-5,3.9292307E-4,4.998116E-4,3.187419E-4,0E0,0E0,0E0,0E0,0E0,0E0,0E0,0E0],"parents":[2147483647,0,0,1,1,2,2,3,3,4,4,6,6,10,10,13,13,14,14,15,15,16,16,17,17,18,18],"right_children":[2,4,6,8,10,-1,12,-1,-1,-1,14,-1,-1,16,18,20,22,24,26,-1,-1,-1,-1,-1,-1,-1,-1],"split_conditions":[1.3446667E1,6.4701556E2,3E0,3.5E1,1.001E1,1.5050459E-2,1.3E1,-1.0052443E-2,-2.5167465E-3,-2.2171785E-3,1.2193359E1,3.6838532E-3,9.973526E-4,6.49224E2,2.379E1,2.5E1,1.1796785E1,2.3478823E1,3.630923E1,-1.8790246E-3,-5.807559E-4,-3.4050943E-4,3.4060478E-4,4.7288308E-4,-9.653728E-4,1.6613143E-3,6.53527E-4],"split_indices":[18,14,0,1,3,0,0,0,0,0,18,0,0,13,10,1,19,10,11,0,0,0,0,0,0,0,0],"split_type":[0,0,0,0,0,0,0,0,0,0,0,0,0,0,0,0,0,0,0,0,0,0,0,0,0,0,0],"sum_hessian":[8E1,7.6E1,4E0,2E0,7.4E1,1E0,3E0,1E0,1E0,9E0,6.5E1,1E0,2E0,3.5E1,3E1,3E0,3.2E1,1.4E1,1.6E1,1E0,2E0,1.5E1,1.7E1,1.2E1,2E0,6E0,1E1],"tree_param":{"num_deleted":"0","num_feature":"20","num_nodes":"27","size_leaf_vector":"1"}},{"base_weights":[1.2090235E-3,-3.713583E-3,7.677536E-2,-7.960478E-2,-6.284205E-4,1.4297915E-2,2.4479628E-2,-9.549809E-3,-2.3909092E-3,-1.4397886E-2,3.6556968E-3,3.499651E-3,9.3084975E-4,-2.1964192E-2,-7.586219E-3,2.0025992E-3,1.1390304E-2,-2.6348496E-3,-1.0992766E-3,-8.2636945E-4,-3.025055E-4,2.5925438E-3,-1.3157368E-3,1.9536019E-4,1.222176E-3,-1.525512E-4,4.0076044E-4],"categories":[],"categories_nodes":[],"categories_segments":[],"categories_sizes":[],"default_left":[0,0,0,0,0,0,0,0,0,0,0,0,0,0,0,0,0,0,0,0,0,0,0,0,0,0,0],"id":49,"left_children":[1,3,5,7,9,-1,11,-1,-1,13,15,-1,-1,17,19,21,23,-1,-1,-1,-1,25,-1,-1,-1,-1,-1],"loss_changes":[3.0415764E-2,1.79785E-2,1.38107985E-2,3.7229247E-4,4.476885E-3,0E0,3.1244708E-4,0E0,0E0,7.6107983E-4,7.187813E-4,0E0,0E0,9.517372E-5,8.992734E-6,4.7234443E-4,5.4585515E-5,0E0,0E0,0E0,0E0,2.8582403E-4,0E0,0E0,0E0,0E0,0E0],"parents":[2147483647,0,0,1,1,2,2,3,3,4,4,6,6,9,9,10,10,13,13,14,14,15,15,16,16,21,21],"right_children":[2,4,6,8,10,-1,12,-1,-1,14,16,-1,-1,18,20,22,24,-1,-1,-1,-1,26,-1,-1,-1,-1,-1],"split_conditions":[1.3446667E1,6.4701556E2,3E0,3.5E1,2.884875E1,1.4297915E-2,1.3E1,-9.549809E-3,-2.3909092E-3,9.944375E0,1.2476666E1,3.499651E-3,9.3084975E-4,6.478331E2,4.5E1,6.50925E2,5E0,-2.6348496E-3,-1.0992766E-3,-8.2636945E-4,-3.025055E-4,6.48548E2,-1.3157368E-3,1.9536019E-4,1.222176E-3,-1.525512E-4,4.0076044E-4],"split_indices":[18,14,0,1,6,0,0,0,0,3,3,0,0,12,1,14,1,0,0,0,0,14,0,0,0,0,0],"split_type":[0,0,0,0,0,0,0,0,0,0,0,0,0,0,0,0,0,0,0,0,0,0,0,0,0,0,0],"sum_hessian":[8E1,7.6E1,4E0,2E0,7.4E1,1E0,3E0,1E0,1E0,1.7E1,5.7E1,1E0,2E0,7E0,1E1,4.8E1,9E0,4E0,3E0,8E0,2E0,4.7E1,1E0,1E0,8E0,1.2E1,3.5E1],"tree_param":{"num_deleted":"0","num_feature":"20","num_nodes":"27","size_leaf_vector":"1"}},{"base_weights":[1.1163288E-3,-3.555781E-3,7.284355E-2,-7.5624466E-2,-6.2562304E-4,1.3583041E-2,2.3139238E-2,-9.072304E-3,-2.271366E-3,-1.3227993E-2,3.2962437E-3,3.3246519E-3,8.687973E-4,-2.0234346E-2,-6.9299177E-3,1.780724E-3,1.0392666E-2,-2.4240494E-3,-1.0168076E-3,-7.528729E-4,-2.823512E-4,2.338628E-3,-1.2499333E-3,5.94759E-3,1.3648224E-3,1.6761241E-4,1.1717479E-3,8.5952284E-4,4.348755E-5],"categories":[],"categories_nodes":[],"categories_segments":[],"categories_sizes":[],"default_left":[0,0,0,0,0,0,0,0,0,0,0,0,0,0,0,0,0,0,0,0,0,0,0,0,0,0,0,0,0],"id":50,"left_children":[1,3,5,7,9,-1,11,-1,-1,13,15,-1,-1,17,19,21,23,-1,-1,-1,-1,25,-1,27,-1,-1,-1,-1,-1],"loss_changes":[2.7403532E-2,1.621298E-2,1.2510581E-2,3.359802E-4,3.7504637E-3,0E0,2.9540714E-4,0E0,0E0,6.540555E-4,6.0527003E-4,0E0,0E0,7.613655E-5,5.7911384E-6,4.1960934E-4,6.353797E-5,0E0,0E0,0E0,0E0,2.7860928E-4,0E0,8.383619E-5,0E0,0E0,0E0,0E0,0E0],"parents":[2147483647,0,0,1,1,2,2,3,3,4,4,6,6,9,9,10,10,13,13,14,14,15,15,16,16,21,21,23,23],"right_children":[2,4,6,8,10,-1,12,-1,-1,14,16,-1,-1,18,20,22,24,-1,-1,-1,-1,26,-1,28,-1,-1,-1,-1,-1],"split_conditions":[1.3446667E1,6.4701556E2,3E0,3.5E1,2.884875E1,1.3583041E-2,1.3E1,-9.072304E-3,-2.271366E-3,9.944375E0,1.2476666E1,3.3246519E-3,8.687973E-4,6.478331E2,4.5E1,6.50925E2,1.301E1,-2.4240494E-3,-1.0168076E-3,-7.528729E-4,-2.823512E-4,5.2102E1,-1.2499333E-3,1.254E1,1.3648224E-3,1.6761241E-4,1.1717479E-3,8.5952284E-4,4.348755E-5],"split_indices":[18,14,0,1,6,0,0,0,0,3,3,0,0,12,1,14,3,0,0,0,0,6,0,4,0,0,0,0,0],"split_type":[0,0,0,0,0,0,0,0,0,0,0,0,0,0,0,0,0,0,0,0,0,0,0,0,0,0,0,0,0],"sum_hessian":[8E1,7.6E1,4E0,2E0,7.4E1,1E0,3E0,1E0,1E0,1.7E1,5.7E1,1E0,2E0,7E0,1E1,4.8E1,9E0,4E0,3E0,8E0,2E0,4.7E1,1E0,5E0,4E0,4.5E1,2E0,3E0,2E0],"tree_param":{"num_deleted":"0","num_feature":"20","num_nodes":"29","size_leaf_vector":"1"}},{"base_weights":[1.0577897E-3,-3.3752145E-3,6.911449E-2,-7.184315E-2,-5.9149426E-4,1.2903881E-2,2.1873713E-2,-8.618689E-3,-2.1577836E-3,-1.7201805E-2,1.9341815E-3,3.1584264E-3,8.1087754E-4,-2.041308E-2,-9.907914E-4,-1.3287333E-3,5.66098E-3,-2.2301103E-3,-5.486488E-4,-1.5299161E-3,-5.6968016E-5,1.7192204E-3,8.806004E-3,-4.910755E-4,1.8868256E-4,4.065367E-4,-9.020488E-4,1.3483865E-3,5.0286384E-4],"categories":[],"categories_nodes":[],"categories_segments":[],"categories_sizes":[],"default_left":[0,0,0,0,0,0,0,0,0,0,0,0,0,0,0,0,0,0,0,0,0,0,0,0,0,0,0,0,0],"id":51,"left_children":[1,3,5,7,9,-1,11,-1,-1,13,15,-1,-1,17,-1,19,21,-1,-1,-1,23,25,27,-1,-1,-1,-1,-1,-1],"loss_changes":[2.4670625E-2,1.4633364E-2,1.13317985E-2,3.0325074E-4,3.179691E-3,0E0,2.785509E-4,0E0,0E0,3.1976262E-5,8.100968E-4,0E0,0E0,4.673563E-5,0E0,6.387442E-4,3.6916544E-4,0E0,0E0,0E0,3.300476E-4,4.146255E-4,2.3258443E-4,0E0,0E0,0E0,0E0,0E0,0E0],"parents":[2147483647,0,0,1,1,2,2,3,3,4,4,6,6,9,9,10,10,13,13,15,15,16,16,20,20,21,21,22,22],"right_children":[2,4,6,8,10,-1,12,-1,-1,14,16,-1,-1,18,-1,20,22,-1,-1,-1,24,26,28,-1,-1,-1,-1,-1,-1],"split_conditions":[1.3446667E1,6.4701556E2,3E0,3.5E1,1.001E1,1.2903881E-2,1.3E1,-8.618689E-3,-2.1577836E-3,6.478331E2,1.2193359E1,3.1584264E-3,8.1087754E-4,9.911053E0,-9.907914E-4,2.66064E1,2.379E1,-2.2301103E-3,-5.486488E-4,-1.5299161E-3,2.8985834E1,2.3478823E1,3.630923E1,-4.910755E-4,1.8868256E-4,4.065367E-4,-9.020488E-4,1.3483865E-3,5.0286384E-4],"split_indices":[18,14,0,1,3,0,0,0,0,12,18,0,0,3,0,11,10,0,0,0,8,10,11,0,0,0,0,0,0],"split_type":[0,0,0,0,0,0,0,0,0,0,0,0,0,0,0,0,0,0,0,0,0,0,0,0,0,0,0,0,0],"sum_hessian":[8E1,7.6E1,4E0,2E0,7.4E1,1E0,3E0,1E0,1E0,9E0,6.5E1,1E0,2E0,5E0,4E0,3.5E1,3E1,4E0,1E0,2E0,3.3E1,1.4E1,1.6E1,9E0,2.4E1,1.2E1,2E0,6E0,1E1],"tree_param":{"num_deleted":"0","num_feature":"20","num_nodes":"29","size_leaf_vector":"1"}},{"base_weights":[9.748671E-4,-3.2327825E-3,6.55777E-2,-6.825098E-2,-5.889511E-4,1.2258673E-2,2.0678759E-2,-8.187771E-3,-2.0498752E-3,-1.1265172E-2,2.734513E-3,3.0004978E-3,7.56836E-4,-1.8835226E-2,-6.9047487E-3,1.4429871E-3,8.789539E-3,-2.051735E-3,-5.212307E-4,-8.0352364E-4,-3.488922E-4,1.9717414E-3,-1.1968613E-3,5.0845146E-3,1.1477661E-3,1.3776655E-4,1.042366E-3,8.706093E-4,1.0972023E-4],"categories":[],"categories_nodes":[],"categories_segments":[],"categories_sizes":[],"default_left":[0,0,0,0,0,0,0,0,0,0,0,0,0,0,0,0,0,0,0,0,0,0,0,0,0,0,0,0,0],"id":52,"left_children":[1,3,5,7,9,-1,11,-1,-1,13,15,-1,-1,17,19,21,23,-1,-1,-1,-1,25,-1,27,-1,-1,-1,-1,-1],"loss_changes":[2.2229912E-2,1.31958835E-2,1.0263281E-2,2.7372967E-4,2.6919574E-3,0E0,2.6199338E-4,0E0,0E0,4.6410295E-4,4.408898E-4,0E0,0E0,3.054994E-5,2.2165768E-5,3.7107972E-4,4.1237276E-5,0E0,0E0,0E0,0E0,2.2665165E-4,0E0,7.708983E-5,0E0,0E0,0E0,0E0,0E0],"parents":[2147483647,0,0,1,1,2,2,3,3,4,4,6,6,9,9,10,10,13,13,14,14,15,15,16,16,21,21,23,23],"right_children":[2,4,6,8,10,-1,12,-1,-1,14,16,-1,-1,18,20,22,24,-1,-1,-1,-1,26,-1,28,-1,-1,-1,-1,-1],"split_conditions":[1.3446667E1,6.4701556E2,3E0,3.5E1,2.884875E1,1.2258673E-2,1.3E1,-8.187771E-3,-2.0498752E-3,6.478331E2,1.2476666E1,3.0004978E-3,7.56836E-4,9.911053E0,2.8501905E1,6.50925E2,1.301E1,-2.051735E-3,-5.212307E-4,-8.0352364E-4,-3.488922E-4,5.2102E1,-1.1968613E-3,1.254E1,1.1477661E-3,1.3776655E-4,1.042366E-3,8.706093E-4,1.0972023E-4],"split_indices":[18,14,0,1,6,0,0,0,0,12,3,0,0,3,8,14,3,0,0,0,0,6,0,3,0,0,0,0,0],"split_type":[0,0,0,0,0,0,0,0,0,0,0,0,0,0,0,0,0,0,0,0,0,0,0,0,0,0,0,0,0],"sum_hessian":[8E1,7.6E1,4E0,2E0,7.4E1,1E0,3E0,1E0,1E0,1.7E1,5.7E1,1E0,2E0,5E0,1.2E1,4.8E1,9E0,4E0,1E0,8E0,4E0,4.7E1,1E0,5E0,4E0,4.5E1,2E0,2E0,3E0],"tree_param":{"num_deleted":"0","num_feature":"20","num_nodes":"29","size_leaf_vector":"1"}},{"base_weights":[9.2903187E-4,-3.0631647E-3,6.2223054E-2,-6.483873E-2,-5.5130007E-4,1.1645746E-2,1.9550085E-2,-7.778406E-3,-1.947403E-3,-1.4664459E-2,1.5954104E-3,2.8504848E-3,7.063548E-4,-3.792763E-4,-1.54510075E-2,-7.9105014E-4,5.540848E-3,-1.7004831E-3,-6.6750846E-4,-1.1896705E-2,6.9103745E-4,1.0419687E-3,3.8001537E-3,-1.6446352E-3,3.15094E-4,-2.718701E-4,3.2944247E-4,2.8681225E-4,8.125623E-4],"categories":[],"categories_nodes":[],"categories_segments":[],"categories_sizes":[],"default_left":[0,0,0,0,0,0,0,0,0,0,0,0,0,0,0,0,0,0,0,0,0,0,0,0,0,0,0,0,0],"id":53,"left_children":[1,3,5,7,9,-1,11,-1,-1,13,15,-1,-1,-1,17,19,21,-1,-1,23,25,-1,27,-1,-1,-1,-1,-1,-1],"loss_changes":[2.0011121E-2,1.1912487E-2,9.2949625E-3,2.470147E-4,2.2956608E-3,0E0,2.459106E-4,0E0,0E0,2.6909169E-5,6.2581466E-4,0E0,0E0,0E0,9.217532E-6,6.995223E-4,1.7271779E-4,0E0,0E0,3.9412885E-4,3.462776E-4,0E0,5.7324185E-5,0E0,0E0,0E0,0E0,0E0,0E0],"parents":[2147483647,0,0,1,1,2,2,3,3,4,4,6,6,9,9,10,10,14,14,15,15,16,16,19,19,20,20,22,22],"right_children":[2,4,6,8,10,-1,12,-1,-1,14,16,-1,-1,-1,18,20,22,-1,-1,24,26,-1,28,-1,-1,-1,-1,-1,-1],"split_conditions":[1.3446667E1,6.4701556E2,3E0,3.5E1,1.001E1,1.1645746E-2,1.3E1,-7.778406E-3,-1.947403E-3,5E0,1.23700075E1,2.8504848E-3,7.063548E-4,-3.792763E-4,9.944375E0,2.66064E1,3.59935E1,-1.7004831E-3,-6.6750846E-4,4.5E1,1.1796785E1,1.0419687E-3,2.3782083E2,-1.6446352E-3,3.15094E-4,-2.718701E-4,3.2944247E-4,2.8681225E-4,8.125623E-4],"split_indices":[18,14,0,1,3,0,0,0,0,1,18,0,0,0,3,11,8,0,0,1,19,0,9,0,0,0,0,0,0],"split_type":[0,0,0,0,0,0,0,0,0,0,0,0,0,0,0,0,0,0,0,0,0,0,0,0,0,0,0,0,0],"sum_hessian":[8E1,7.6E1,4E0,2E0,7.4E1,1E0,3E0,1E0,1E0,9E0,6.5E1,1E0,2E0,1E0,8E0,4.1E1,2.4E1,6E0,2E0,4E0,3.7E1,5E0,1.9E1,3E0,1E0,1.6E1,2.1E1,1.7E1,2E0],"tree_param":{"num_deleted":"0","num_feature":"20","num_nodes":"29","size_leaf_vector":"1"}},{"base_weights":[8.805946E-4,-2.9075053E-3,5.9041213E-2,-6.159687E-2,-5.211639E-4,1.1063481E-2,1.8484116E-2,-7.389498E-3,-1.8500328E-3,-9.629356E-3,2.314502E-3,2.7079582E-3,6.5924326E-4,-1.613585E-2,-5.885638E-3,2.7492924E-3,-1.1234283E-3,-1.7515946E-3,-4.6176912E-4,-6.559658E-4,-2.7291776E-4,1.7111102E-3,7.4576377E-3,-1.7408958E-4,2.910137E-4,1.3561249E-3,5.2726537E-4],"categories":[],"categories_nodes":[],"categories_segments":[],"categories_sizes":[],"default_left":[0,0,0,0,0,0,0,0,0,0,0,0,0,0,0,0,0,0,0,0,0,0,0,0,0,0,0],"id":54,"left_children":[1,3,5,7,9,-1,11,-1,-1,13,15,-1,-1,17,19,21,-1,-1,-1,-1,-1,23,25,-1,-1,-1,-1],"loss_changes":[1.801744E-2,1.0751968E-2,8.417446E-3,2.2293627E-4,1.9593711E-3,0E0,2.3033796E-4,0E0,0E0,3.4348306E-4,3.725577E-4,0E0,0E0,1.4493824E-5,9.755284E-6,2.658621E-4,0E0,0E0,0E0,0E0,0E0,2.0374056E-4,6.18592E-5,0E0,0E0,0E0,0E0],"parents":[2147483647,0,0,1,1,2,2,3,3,4,4,6,6,9,9,10,10,13,13,14,14,15,15,21,21,22,22],"right_children":[2,4,6,8,10,-1,12,-1,-1,14,16,-1,-1,18,20,22,-1,-1,-1,-1,-1,24,26,-1,-1,-1,-1],"split_conditions":[1.3446667E1,6.4701556E2,3E0,3.5E1,2.884875E1,1.1063481E-2,1.3E1,-7.389498E-3,-1.8500328E-3,6.478331E2,6.50925E2,2.7079582E-3,6.5924326E-4,9.911053E0,6.502575E2,1.2476666E1,-1.1234283E-3,-1.7515946E-3,-4.6176912E-4,-6.559658E-4,-2.7291776E-4,6.48548E2,6.46946E2,-1.7408958E-4,2.910137E-4,1.3561249E-3,5.2726537E-4],"split_indices":[18,14,0,1,6,0,0,0,0,12,14,0,0,3,14,3,0,0,0,0,0,14,13,0,0,0,0],"split_type":[0,0,0,0,0,0,0,0,0,0,0,0,0,0,0,0,0,0,0,0,0,0,0,0,0,0,0],"sum_hessian":[8E1,7.6E1,4E0,2E0,7.4E1,1E0,3E0,1E0,1E0,1.7E1,5.7E1,1E0,2E0,5E0,1.2E1,5.6E1,1E0,4E0,1E0,9E0,3E0,4.7E1,9E0,1.2E1,3.5E1,1E0,8E0],"tree_param":{"num_deleted":"0","num_feature":"20","num_nodes":"27","size_leaf_vector":"1"}},{"base_weights":[8.288018E-4,-2.766027E-3,5.6023408E-2,-5.851714E-2,-4.991023E-4,1.0510302E-2,1.747775E-2,-7.0200446E-3,-1.7575264E-3,-1.2463379E-2,1.321229E-3,2.5725842E-3,6.153107E-4,-1.4890988E-2,-7.057571E-4,-8.0603646E-4,4.842186E-3,-1.6114425E-3,-4.386902E-4,-1.0926056E-2,5.4675655E-4,9.012858E-3,3.348875E-3,-1.7786026E-3,-4.240672E-5,1.8720012E-4,-4.656911E-4,5.6621555E-4,1.2883187E-3,3.729218E-4,-1.9388199E-4],"categories":[],"categories_nodes":[],"categories_segments":[],"categories_sizes":[],"default_left":[0,0,0,0,0,0,0,0,0,0,0,0,0,0,0,0,0,0,0,0,0,0,0,0,0,0,0,0,0,0,0],"id":55,"left_children":[1,3,5,7,9,-1,11,-1,-1,13,15,-1,-1,17,-1,19,21,-1,-1,23,25,27,29,-1,-1,-1,-1,-1,-1,-1,-1],"loss_changes":[1.6226592E-2,9.702329E-3,7.622065E-3,2.0121783E-4,1.6498881E-3,0E0,2.1533296E-4,0E0,0E0,2.6137684E-5,4.9824367E-4,0E0,0E0,6.414135E-6,0E0,5.809661E-4,1.2551987E-4,0E0,0E0,3.5267422E-4,2.7077075E-4,4.8633374E-6,4.7453024E-5,0E0,0E0,0E0,0E0,0E0,0E0,0E0,0E0],"parents":[2147483647,0,0,1,1,2,2,3,3,4,4,6,6,9,9,10,10,13,13,15,15,16,16,19,19,20,20,21,21,22,22],"right_children":[2,4,6,8,10,-1,12,-1,-1,14,16,-1,-1,18,-1,20,22,-1,-1,24,26,28,30,-1,-1,-1,-1,-1,-1,-1,-1],"split_conditions":[1.3446667E1,6.4701556E2,3E0,3.5E1,1.001E1,1.0510302E-2,1.3E1,-7.0200446E-3,-1.7575264E-3,6.478331E2,1.23700075E1,2.5725842E-3,6.153107E-4,9.911053E0,-7.057571E-4,2.66064E1,3.59935E1,-1.6114425E-3,-4.386902E-4,6.4898334E2,6.504442E2,4E1,1.2572381E1,-1.7786026E-3,-4.240672E-5,1.8720012E-4,-4.656911E-4,5.6621555E-4,1.2883187E-3,3.729218E-4,-1.9388199E-4],"split_indices":[18,14,0,1,3,0,0,0,0,12,18,0,0,3,0,11,8,0,0,12,13,1,4,0,0,0,0,0,0,0,0],"split_type":[0,0,0,0,0,0,0,0,0,0,0,0,0,0,0,0,0,0,0,0,0,0,0,0,0,0,0,0,0,0,0],"sum_hessian":[8E1,7.6E1,4E0,2E0,7.4E1,1E0,3E0,1E0,1E0,9E0,6.5E1,1E0,2E0,5E0,4E0,4.1E1,2.4E1,4E0,1E0,4E0,3.7E1,5E0,1.9E1,2E0,2E0,3E1,7E0,4E0,1E0,1.8E1,1E0],"tree_param":{"num_deleted":"0","num_feature":"20","num_nodes":"31","size_leaf_vector":"1"}},{"base_weights":[7.718993E-4,-2.6399936E-3,5.3160667E-2,-5.5591267E-2,-4.8674265E-4,9.984779E-3,1.6526937E-2,-6.6690445E-3,-1.6696453E-3,-8.27588E-3,1.9389678E-3,2.4439336E-3,5.743027E-4,-1.37434E-3,-5.1158024E-3,2.3507404E-3,-1.076603E-3,-6.1758584E-4,-3.3249173E-4,2.856802E-3,-5.068779E-3,6.763972E-4,1.579421E-4,2.0747185E-4,-8.141518E-4],"categories":[],"categories_nodes":[],"categories_segments":[],"categories_sizes":[],"default_left":[0,0,0,0,0,0,0,0,0,0,0,0,0,0,0,0,0,0,0,0,0,0,0,0,0],"id":56,"left_children":[1,3,5,7,9,-1,11,-1,-1,13,15,-1,-1,-1,17,19,-1,-1,-1,21,23,-1,-1,-1,-1],"loss_changes":[1.4618677E-2,8.752279E-3,6.9014393E-3,1.8160697E-4,1.433111E-3,0E0,2.0095066E-4,0E0,0E0,2.406917E-4,3.28739E-4,0E0,0E0,0E0,4.1454914E-6,2.2850034E-4,0E0,0E0,0E0,2.588279E-4,1.04691775E-4,0E0,0E0,0E0,0E0],"parents":[2147483647,0,0,1,1,2,2,3,3,4,4,6,6,9,9,10,10,14,14,15,15,19,19,20,20],"right_children":[2,4,6,8,10,-1,12,-1,-1,14,16,-1,-1,-1,18,20,-1,-1,-1,22,24,-1,-1,-1,-1],"split_conditions":[1.3446667E1,6.4701556E2,3E0,3.5E1,2.884875E1,9.984779E-3,1.3E1,-6.6690445E-3,-1.6696453E-3,6.478331E2,6.50925E2,2.4439336E-3,5.743027E-4,-1.37434E-3,1.1615294E1,6.50545E2,-1.076603E-3,-6.1758584E-4,-3.3249173E-4,3.050941E1,1.1775E1,6.763972E-4,1.579421E-4,2.0747185E-4,-8.141518E-4],"split_indices":[18,14,0,1,6,0,0,0,0,12,14,0,0,0,3,13,0,0,0,6,5,0,0,0,0],"split_type":[0,0,0,0,0,0,0,0,0,0,0,0,0,0,0,0,0,0,0,0,0,0,0,0,0],"sum_hessian":[8E1,7.6E1,4E0,2E0,7.4E1,1E0,3E0,1E0,1E0,1.7E1,5.7E1,1E0,2E0,5E0,1.2E1,5.6E1,1E0,6E0,6E0,5.3E1,3E0,1.2E1,4.1E1,1E0,2E0],"tree_param":{"num_deleted":"0","num_feature":"20","num_nodes":"25","size_leaf_vector":"1"}},{"base_weights":[7.130187E-4,-2.525602E-3,5.0445177E-2,-5.2811623E-2,-4.8048655E-4,9.485531E-3,1.5628815E-2,-6.3355924E-3,-1.5861512E-3,-7.5772074E-3,1.7302283E-3,2.3217201E-3,5.360285E-4,-1.2598197E-2,-4.6769655E-3,2.1194492E-3,-1.0227681E-3,-1.3725663E-3,-3.4804345E-4,-5.1792143E-3,-2.252102E-4,5.67409E-4,4.3890993E-3,-5.6407455E-4,-2.2220612E-4,-9.187539E-4,2.499485E-4,1.1900902E-3,3.506704E-4],"categories":[],"categories_nodes":[],"categories_segments":[],"categories_sizes":[],"default_left":[0,0,0,0,0,0,0,0,0,0,0,0,0,0,0,0,0,0,0,0,0,0,0,0,0,0,0,0,0],"id":57,"left_children":[1,3,5,7,9,-1,11,-1,-1,13,15,-1,-1,17,19,21,-1,-1,-1,23,-1,25,27,-1,-1,-1,-1,-1,-1],"loss_changes":[1.3173556E-2,7.893361E-3,6.2485207E-3,1.6391836E-4,1.1897723E-3,0E0,1.8723554E-4,0E0,0E0,2.0319619E-4,2.916245E-4,0E0,0E0,1.3908488E-5,4.168396E-6,1.9829714E-4,0E0,0E0,0E0,1.1140946E-6,0E0,6.826197E-4,1.1071985E-4,0E0,0E0,0E0,0E0,0E0,0E0],"parents":[2147483647,0,0,1,1,2,2,3,3,4,4,6,6,9,9,10,10,13,13,14,14,15,15,19,19,21,21,22,22],"right_children":[2,4,6,8,10,-1,12,-1,-1,14,16,-1,-1,18,20,22,-1,-1,-1,24,-1,26,28,-1,-1,-1,-1,-1,-1],"split_conditions":[1.3446667E1,6.4701556E2,3E0,3.5E1,2.884875E1,9.485531E-3,1.3E1,-6.3355924E-3,-1.5861512E-3,6.478331E2,6.50925E2,2.3217201E-3,5.360285E-4,9.911053E0,6.502575E2,1.239E1,-1.0227681E-3,-1.3725663E-3,-3.4804345E-4,6.5042926E2,-2.252102E-4,2.66064E1,6.46946E2,-5.6407455E-4,-2.2220612E-4,-9.187539E-4,2.499485E-4,1.1900902E-3,3.506704E-4],"split_indices":[18,14,0,1,6,0,0,0,0,12,14,0,0,3,14,18,0,0,0,12,0,11,13,0,0,0,0,0,0],"split_type":[0,0,0,0,0,0,0,0,0,0,0,0,0,0,0,0,0,0,0,0,0,0,0,0,0,0,0,0,0],"sum_hessian":[8E1,7.6E1,4E0,2E0,7.4E1,1E0,3E0,1E0,1E0,1.7E1,5.7E1,1E0,2E0,5E0,1.2E1,5.6E1,1E0,4E0,1E0,9E0,3E0,3.4E1,2.2E1,7E0,2E0,5E0,2.9E1,1E0,2.1E1],"tree_param":{"num_deleted":"0","num_feature":"20","num_nodes":"29","size_leaf_vector":"1"}},{"base_weights":[6.6057843E-4,-2.413502E-3,4.7869302E-2,-5.0171215E-2,-4.710134E-4,9.011269E-3,1.4780283E-2,-6.0188295E-3,-1.5068532E-3,-6.971518E-3,1.5545056E-3,2.2056103E-3,5.002976E-4,-1.162529E-2,-4.287353E-3,1.9227078E-3,-9.716511E-4,-1.2627792E-3,-3.306389E-4,-4.7402384E-4,-2.0833015E-4,2.392557E-3,-4.9009323E-3,5.813525E-4,1.2767201E-4,1.8458367E-4,-7.765134E-4],"categories":[],"categories_nodes":[],"categories_segments":[],"categories_sizes":[],"default_left":[0,0,0,0,0,0,0,0,0,0,0,0,0,0,0,0,0,0,0,0,0,0,0,0,0,0,0],"id":58,"left_children":[1,3,5,7,9,-1,11,-1,-1,13,15,-1,-1,17,19,21,-1,-1,-1,-1,-1,23,25,-1,-1,-1,-1],"loss_changes":[1.1870529E-2,7.1195676E-3,5.6570694E-3,1.4792942E-4,9.983545E-4,0E0,1.7420558E-4,0E0,0E0,1.7500517E-4,2.593828E-4,0E0,0E0,8.285977E-6,3.1010422E-6,1.944724E-4,0E0,0E0,0E0,0E0,0E0,1.9870885E-4,9.162961E-5,0E0,0E0,0E0,0E0],"parents":[2147483647,0,0,1,1,2,2,3,3,4,4,6,6,9,9,10,10,13,13,14,14,15,15,21,21,22,22],"right_children":[2,4,6,8,10,-1,12,-1,-1,14,16,-1,-1,18,20,22,-1,-1,-1,-1,-1,24,26,-1,-1,-1,-1],"split_conditions":[1.3446667E1,6.4701556E2,3E0,3.5E1,2.884875E1,9.011269E-3,1.3E1,-6.0188295E-3,-1.5068532E-3,6.478331E2,6.50925E2,2.2056103E-3,5.002976E-4,9.911053E0,6.502575E2,6.50545E2,-9.716511E-4,-1.2627792E-3,-3.306389E-4,-4.7402384E-4,-2.0833015E-4,3.050941E1,1.1775E1,5.813525E-4,1.2767201E-4,1.8458367E-4,-7.765134E-4],"split_indices":[18,14,0,1,6,0,0,0,0,12,14,0,0,3,14,13,0,0,0,0,0,6,5,0,0,0,0],"split_type":[0,0,0,0,0,0,0,0,0,0,0,0,0,0,0,0,0,0,0,0,0,0,0,0,0,0,0],"sum_hessian":[8E1,7.6E1,4E0,2E0,7.4E1,1E0,3E0,1E0,1E0,1.7E1,5.7E1,1E0,2E0,5E0,1.2E1,5.6E1,1E0,4E0,1E0,9E0,3E0,5.3E1,3E0,1.2E1,4.1E1,1E0,2E0],"tree_param":{"num_deleted":"0","num_feature":"20","num_nodes":"27","size_leaf_vector":"1"}},{"base_weights":[6.074552E-4,-2.3107033E-3,4.5425605E-2,-4.7662735E-2,-4.6581269E-4,8.560705E-3,1.3978481E-2,-5.7178973E-3,-1.4315129E-3,-9.021282E-3,8.375283E-4,2.095318E-3,4.6691895E-4,-2.0942689E-4,-9.558254E-4,-1.2995137E-3,3.2922376E-3,-4.7680992E-4,-1.5047074E-3,4.4298172E-4,5.3254236E-3,5.2143546E-6,-9.230614E-4,-9.221077E-4,1.8956845E-4,3.5533907E-5,6.7200663E-4],"categories":[],"categories_nodes":[],